tree
version=v3
num_class=1
num_tree_per_iteration=1
label_index=0
max_feature_idx=45
objective=lambdarank
feature_names=Column_0 Column_1 Column_2 Column_3 Column_4 Column_5 Column_6 Column_7 Column_8 Column_9 Column_10 Column_11 Column_12 Column_13 Column_14 Column_15 Column_16 Column_17 Column_18 Column_19 Column_20 Column_21 Column_22 Column_23 Column_24 Column_25 Column_26 Column_27 Column_28 Column_29 Column_30 Column_31 Column_32 Column_33 Column_34 Column_35 Column_36 Column_37 Column_38 Column_39 Column_40 Column_41 Column_42 Column_43 Column_44 Column_45
feature_infos=[0:1] [0:1] [0:1] [0:1] [0:1] none none none none none [0:1] [0:1] [0:1] [0:1] [0:1] [0:1] [0:1] [0:1] [0:1] [0:1] [0:1] [0:1] [0:1] [0:1] [0:1] [0:1] [0:1] [0:1] [0:1] [0:1] [0:1] [0:1] [0:1] [0:1] [0:1] [0:1] [0:1] [0:1] [0:1] [0:1] [0:1] [0:1] none [0:1] [0:1] [0:1]
tree_sizes=3466 3466 3475 3457 3462 3458 3438 3452 3464 3464 3458 3453 3475 3457 3473 3466 3456 3464 3456 3452 3461 3454 3465 3465 3471 3473 3474 3456 3453 3462 3464 3455 3457 3459 3472 3478 3463 3466 3474 3473 3453 3462 3478 3466 3456 3470 3452 3461 3481 3468 3453 3476 3467 3487 3452 3478 3461 3469 3456 3468 3466 3471 3487 3463 3478 3462 3467 3489 3476 3471 3478 3470 3468 3464 3469 3477 3477 3476 3474 3484 3462 3465 3474 3453 3473 3474 3454 3461 3471 3458 3472 3456 3475 3449 3471 3482 3490 3477 3485 3478 3463 3490 3472 3477 3474 3472 3472 3486 3486 3492 3483 3488 3491 3492 3476 3476 3484 3491 3490 3468 3473 3494 3477 3478 3475 3474 3472 3467 3481 3489 3481 3481 3482 3470 3480 3487 3488 3473 3470 3477 3485 3484 3478 3479 3488 3485 3479 3488 3488 3476 3484 3466 3493 3501 3483 3491 3497 3491 3476 3484 3493 3505 3474 3494 3493 3508 3485 3485 3471 3488 3478 3492 3487 3475 3486 3474 3503 3485 3467 3485 3485 3495 3471 3500 3493 3478 3481 3493 3470 3481 3485 3483 3496 3461 3475 3489 3478 3486 3482 3486

Tree=0
num_leaves=31
num_cat=0
split_feature=38 38 38 28 15 39 37 19 15 44 4 43 16 41 18 18 36 28 44 16 40 18 20 14 43 43 43 29 45 18
split_gain=228.776 19.3911 17.2078 7.43055 6.07101 9.91043 5.85139 5.42712 5.06462 5.04487 5.14564 4.88634 4.87817 4.69619 4.61401 4.0203 7.60478 3.94716 3.59523 3.53263 3.45773 3.4475 6.4292 3.38741 3.27976 3.20266 3.30669 3.0487 4.1419 5.3322
threshold=0.59013000000000015 0.32621550000000005 0.77334300000000011 0.86941500000000016 0.17464850000000001 0.58267150000000012 0.8981650000000001 0.19379300000000002 0.0060485000000000009 0.014652500000000002 0.019220000000000004 0.81443400000000021 0.88194450000000013 0.88965000000000016 0.8944445000000002 1.0000000180025095e-35 0.88974550000000019 0.43313150000000006 0.0028430000000000005 0.45643900000000004 0.18333350000000004 0.23904750000000002 0.55426200000000014 0.62922500000000003 0.023147500000000005 0.12533550000000002 0.014810000000000002 0.19244650000000002 0.0023475000000000006 0.051316000000000007
decision_type=2 2 2 2 2 2 2 2 2 2 2 2 2 2 2 2 2 2 2 2 2 2 2 2 2 2 2 2 2 2
left_child=1 -1 11 6 5 -3 14 -6 18 17 12 13 -11 15 27 16 23 -7 -8 -13 -12 -17 24 -2 -23 26 -24 28 -4 -30
right_child=2 4 3 -5 7 9 8 -9 -10 10 20 19 -14 -15 -16 21 -18 -19 -20 -21 -22 22 25 -25 -26 -27 -28 -29 29 -31
leaf_value=-0.01601680068460766 -0.012406093039714308 -0.013894482662521053 0.0091496048133107421 0.015331187112724947 0.012669766264098587 -0.015621975001534331 0.010658639618522932 -0.0044236229197233941 0.012712994258708985 0.00060405995676779455 -0.019560706148414181 0.0019470798010920998 0.019751960962931671 -0.009011659141063862 -0.0096300323129237825 0.0079396943082958218 0.014512446497253098 -0.0017871991200845466 -0.013574462645511888 -0.016206713292070313 -0.0018803694814068497 -0.013642597974269031 0.006088634700544735 0.0035413208701584931 0.0033836202316113351 0.014055648027253745 -0.0065938992154266516 0.011339761116622283 -0.010168775583909802 0.004499217950086406
leaf_weight=50.59049121996577 4.2628210536131501 21.647669760062854 15.679272654742816 19.976065192604437 2.3323852338362476 5.2100332785739756 1.1554861018666991 9.1214590201561787 32.14781259954907 6.0116509783547354 1.7489872598089276 2.1577989535871884 1.7086588488891719 2.6571588070073622 1.7625557368446596 28.345751638367801 2.1211782274767756 3.4133064073976129 1.3021519914036614 2.1300696600228548 3.0094492302741855 3.1109219986246925 9.0442772327878611 1.9372601797804234 1.7779857818968592 3.5444740620441726 2.6605636938184025 11.392542072164359 2.9472019908134852 15.579482938628642
leaf_count=1983 94 984 470 201 22 209 22 354 531 132 35 47 13 103 51 780 23 154 47 45 90 159 355 27 44 61 109 231 69 351
internal_value=0 -0.0115642 0.0073139 0.00986234 -0.00740842 -0.00914073 0.00852952 -0.000942838 0.0116552 -0.00426407 -0.000199503 0.00323871 0.00484187 0.00398216 0.00624565 0.00458997 -0.00183157 -0.0101459 -0.002181 -0.00707112 -0.00837887 0.00569209 0.00252846 -0.00742321 -0.00745055 0.00572771 0.00320584 0.0068593 0.00536705 0.00216585
internal_weight=0 104.794 165.693 101.943 54.2036 42.7498 81.9665 11.4538 34.6055 21.1021 12.4787 63.7503 7.72031 59.4624 47.3611 56.8052 8.32126 8.62334 2.45764 4.28787 4.75844 48.484 20.1382 6.20008 4.88891 15.2493 11.7048 45.5985 34.206 18.5267
internal_count=7796 3976 3820 1973 1993 1617 1772 376 600 633 270 1847 145 1755 1172 1652 144 363 69 92 125 1508 728 121 203 525 464 1121 890 420
is_linear=0
shrinkage=0.01


Tree=1
num_leaves=31
num_cat=0
split_feature=38 28 39 38 16 39 4 24 44 14 10 4 41 43 18 14 44 45 45 4 21 3 22 21 28 12 14 16 40 41
split_gain=585.243 73.8782 54.193 52.6262 36.2446 36.1184 33.6185 26.009 17.4295 21.1111 20.2973 19.3682 16.7217 17.2266 18.2911 18.2992 15.5184 18.215 14.5004 25.1769 17.881 14.3945 14.1454 14.2848 12.954 12.8933 27.0429 12.8753 12.4007 12.1928
threshold=0.59644050000000004 0.91000250000000016 0.49437550000000002 0.94343850000000018 0.88194450000000013 0.70373500000000011 0.022938000000000004 0.62986300000000017 0.010886000000000002 0.10364250000000001 0.18306600000000003 0.049007000000000002 1.0000000180025095e-35 0.00037450000000000005 0.17752100000000001 0.62922500000000003 0.072300000000000017 0.31503750000000003 0.43039250000000007 0.15563200000000002 0.91350300000000006 0.87500000000000011 0.44717900000000005 0.23594300000000004 0.78888150000000012 0.15790850000000003 0.26787950000000005 0.47871400000000003 0.37980750000000002 0.13418700000000003
decision_type=2 2 2 2 2 2 2 2 2 2 2 2 2 2 2 2 2 2 2 2 2 2 2 2 2 2 2 2 2 2
left_child=2 3 22 6 16 -5 27 8 9 11 -11 21 -10 -14 -15 18 -4 29 20 -20 -16 -8 -1 -24 -9 26 -12 -2 -3 -18
right_child=1 28 4 5 -6 -7 7 24 12 10 25 -13 13 14 15 -17 17 -19 19 -21 -22 -23 23 -25 -26 -27 -28 -29 -30 -31
leaf_value=-0.016903192814098803 -0.0080035489563554212 0.013479253353886196 -0.011989203470603189 -0.0093582562609736165 0.0084123891948331298 0.0089430126442887874 -0.0049959858879290745 0.010839930733166999 -0.0129477825845195 -0.0096795493270062181 0.011085861382152706 0.013039455285361544 -0.016548793069664624 0.0051321772897518735 -0.011309234110049096 0.0059237064473283557 0.011054128841947418 -0.013904411477413683 -0.012235132368359488 0.01297445367040369 0.0052278102953884796 0.018395500376947326 0.0061571761165619895 -0.012488811965553522 -0.0016589902010602673 0.0099089310209279045 -0.0049162012361397382 0.0031515233482921172 0.0074308035300305608 -0.0041122147643714657
leaf_weight=147.07189672673121 48.455549934878945 89.24170295894146 58.508290396537632 11.542723258957265 13.956317605450748 163.97976366896182 12.844569822773339 46.365061284042895 11.174714434891937 15.413199881091712 15.61660962551832 34.890051167225465 6.1778697464615098 52.245653323829174 35.411268075462431 19.510720366612077 8.6428276160731929 11.131228793412445 6.6556094568222788 9.7872304487973434 8.0191651768982393 3.3083600797690442 5.0150352381169823 22.734368123114109 10.097871283069251 19.449481518007815 32.621776502230205 13.15623744111508 54.657270366325974 13.708449759520589
leaf_count=2327 574 159 984 58 58 516 180 203 63 174 102 199 61 324 287 102 46 95 46 26 42 7 35 364 32 92 311 85 121 123
internal_value=0 0.00477185 -0.0122475 0.00317247 -0.00660394 0.00773948 0.00117444 0.00240744 0.00117156 0.00378633 0.000677237 0.00884813 -0.00118279 -0.000228772 0.000537187 -0.00248695 -0.00888213 -0.00345274 -0.00522771 0.00277031 -0.00825577 -0.000205062 -0.0156676 -0.009119 0.00860461 0.00303558 0.000264278 -0.00562156 0.0111819 0.00175233
internal_weight=0 720.622 280.768 576.723 105.947 175.522 401.201 339.589 283.126 134.144 83.1011 51.043 148.982 137.808 131.63 79.384 91.9908 33.4825 59.8733 16.4428 43.4304 16.1529 174.821 27.7494 56.4629 67.6879 48.2384 61.6118 143.899 22.3513
internal_count=7796 3764 4032 3484 1306 574 2910 2251 2016 1065 679 386 951 888 827 503 1248 264 401 72 329 187 2726 399 235 505 413 659 280 169
is_linear=0
shrinkage=0.01


Tree=2
num_leaves=31
num_cat=0
split_feature=38 21 38 28 23 18 38 0 0 41 44 24 23 40 15 21 45 27 37 41 16 41 45 10 45 16 18 44 43 14
split_gain=520.327 51.8862 49.6793 38.7481 28.996 28.7361 24.9281 24.2924 23.2293 22.5158 21.2612 20.0949 18.0581 17.0843 15.3206 14.2466 14.041 16.5971 13.9874 12.6846 16.3097 16.129 15.8742 13.0939 12.6509 12.2788 12.1361 11.5891 11.0983 10.839
threshold=0.59644050000000004 0.88930700000000007 0.33935600000000005 0.91000250000000016 0.75294700000000014 0.8944445000000002 0.85810800000000009 0.013383000000000001 0.04120300000000001 0.92759400000000014 0.071198500000000012 0.57325800000000016 0.50207650000000015 0.26785700000000007 0.28491700000000003 0.23066400000000001 0.0029915000000000007 0.58657550000000003 0.013460000000000001 0.26978900000000006 0.070751500000000009 0.55338100000000012 0.0053405000000000006 0.12168750000000002 0.22745750000000003 0.41421350000000007 0.065591500000000011 0.0074350000000000015 0.0097925000000000009 0.31451250000000003
decision_type=2 2 2 2 2 2 2 2 2 2 2 2 2 2 2 2 2 2 2 2 2 2 2 2 2 2 2 2 2 2
left_child=2 3 -1 5 -5 8 7 -3 26 13 18 19 15 -8 -15 -12 -14 -18 -4 20 24 25 -23 -22 29 -21 -2 -25 -28 -10
right_child=1 6 10 4 -6 -7 9 -9 11 -11 12 -13 16 14 -16 -17 17 -19 -20 21 23 22 -24 27 -26 -27 28 -29 -30 -31
leaf_value=-0.016591802441030538 -0.016322764827084679 -0.010550653071198767 0.01389362966841798 0.014610069524348625 0.00087407471921335182 -0.013770286079229525 0.013570373872496218 0.005289924779191605 0.012371832946382373 -0.0045680758747525217 0.0038452054710469501 0.0086200464889380161 0.0093588592283215186 0.0088566359378955545 -0.0040969256247352396 -0.015709859055255227 -0.008302462065857958 0.012067807763638343 -0.011981801576651949 -0.0080679180666217362 -0.0070697692389753587 -0.0028679693921480061 0.01095516693570126 -0.0064430837707883338 -0.0067785669106552662 0.0043748712798503918 -0.0069641297778826007 0.0048352911391704263 0.0019424798851344002 0.0023371728708145596
leaf_weight=126.23721121996641 7.0711023937910786 11.636302107945083 2.1500200256705275 39.930583350360394 24.983249343931675 12.867608456406741 88.754220746457577 57.620073323138058 33.498254875652492 10.754048451781271 4.981342306360605 48.130483079701662 13.128332532942293 104.04263843595982 10.008910631760953 14.778473031707106 17.468712828122083 5.1876245876774183 73.751372713129967 37.209318811073899 17.969886913895607 17.572427552193403 15.757000671699641 11.262125384993849 5.5485839731991282 10.079120490700005 27.417161766905338 47.695158939808607 28.568244112189859 15.861061671283094
leaf_count=2067 96 105 9 81 59 134 196 279 135 39 32 170 62 306 40 205 156 22 1479 374 178 112 72 121 43 68 486 287 254 129
internal_value=0 0.00456111 -0.0121113 0.00224971 0.00932353 0.000885142 0.00784184 0.00262843 0.00146783 0.00953253 -0.00780839 0.00278571 -0.00310701 0.0102802 0.00771986 -0.0107801 0.00112999 -0.00363828 -0.0112488 0.00146397 0.00337473 -0.00166072 0.00366713 0.000403163 0.00753796 -0.00541585 -0.00397839 0.00268088 -0.00241926 0.00914731
internal_weight=0 684.238 257.683 401.421 64.9138 336.508 282.816 69.2564 323.64 213.56 131.446 260.583 55.5445 202.806 114.052 19.7598 35.7847 22.6563 75.9014 212.453 131.835 80.6179 33.3294 76.9272 54.9079 47.2884 63.0565 58.9573 55.9854 49.3593
internal_count=7796 3764 4032 2799 140 2659 965 384 2525 581 1965 1689 477 542 346 237 240 178 1488 1519 893 626 184 586 307 442 836 408 740 264
is_linear=0
shrinkage=0.01


Tree=3
num_leaves=31
num_cat=0
split_feature=38 38 38 28 0 36 18 44 17 44 28 0 24 41 13 39 45 14 41 17 16 43 26 44 36 15 30 37 23 25
split_gain=474.804 48.727 40.4528 29.2964 26.7774 27.2922 22.8286 21.2615 18.8705 18.1165 16.1765 24.5703 18.8962 18.0013 15.0092 14.2078 14.5438 20.2591 18.6278 13.7303 17.1003 31.4761 14.9063 13.6487 13.4997 12.7266 17.4656 13.8895 11.4042 10.537
threshold=0.59644050000000004 0.8182775000000001 0.33935600000000005 0.8907130000000002 0.80551050000000013 0.51561200000000007 0.86038950000000003 0.021978500000000002 0.13188400000000003 0.026385500000000003 0.93257800000000002 0.061468500000000002 0.63254150000000009 0.075330000000000022 0.58581150000000004 0.46364300000000008 0.0023475000000000006 0.50228750000000011 0.38729850000000005 0.81534100000000009 0.30495200000000006 0.28606000000000004 0.012895500000000002 0.0049650000000000015 0.79901000000000011 0.032103500000000007 0.19901800000000003 0.88383900000000015 0.81550350000000005 0.036988500000000001
decision_type=2 2 2 2 2 2 2 2 2 2 2 2 2 2 2 2 2 2 2 2 2 2 2 2 2 2 2 2 2 2
left_child=2 10 -1 4 5 -3 14 -4 28 -5 11 -2 24 -12 19 -9 18 -18 -17 20 21 25 -21 -15 -13 26 -7 -27 -6 -22
right_child=1 3 7 9 8 6 -8 15 -10 -11 13 12 -14 23 -16 16 17 -19 -20 22 29 -23 -24 -25 -26 27 -28 -29 -30 -31
leaf_value=-0.016267701963731774 -0.0038209170163812614 -0.0097542889666651887 -0.012771338408992255 0.0046749923355653882 -0.0043343057488584311 -0.0058759192997681134 -0.0088656103796324794 -0.012351731956073524 -0.012831295794912547 0.01522367533222144 0.017088212383755227 -0.00047422772613908519 0.01319763942388495 0.010235436481954643 0.012961860698341361 0.0098680251730898644 -0.012300818111152086 0.0042466903713894669 -0.01245989280462825 -0.0076229124137694882 0.014485507513812799 -0.016841887187636184 0.0086974310669769225 -0.0032446602669454969 0.007985515671988009 0.0036756376303902489 0.0090440306568327581 0.011537524192703739 0.0094913580543614564 0.0066053225047511379
leaf_weight=116.70105613674968 96.792473980225623 10.223743703216313 53.788588321767747 23.17012295871973 12.316100014373662 17.681242559105161 8.8981255665421468 16.960791105404496 12.425274178385733 54.756405364722013 11.965484857559202 84.151366175152361 15.585494350641964 13.294409122318031 41.224509539082646 15.999669586308302 19.755850628018383 11.828611033968626 4.874999212101101 13.595070730894806 40.973693707957864 6.231842800974845 9.5121391639113408 17.26636528223753 24.312768466770649 40.003820116631687 14.10515367798507 51.273820541333407 11.571555763483046 28.962897745892406
leaf_count=2067 1213 76 1215 54 75 132 72 259 78 94 27 715 47 37 105 92 259 90 50 69 106 41 27 66 118 270 65 125 41 111
internal_value=0 0.00437766 -0.0120485 0.00659047 0.0052477 0.00628611 0.006888 -0.00805208 -0.00283602 0.0120872 0.00104272 -4.48338e-05 0.00290154 0.00669044 0.00741985 -0.00439546 -0.00182309 -0.00610366 0.00465364 0.0063923 0.0072386 0.00508392 -0.000904603 0.00261939 0.00142207 0.00619423 0.00074478 0.00809193 0.00236306 0.0112221
internal_weight=0 660.294 239.91 396.926 318.999 282.686 272.462 123.209 36.3129 77.9265 263.368 220.842 124.05 42.5263 263.564 69.4199 52.4591 31.5845 20.8747 222.34 199.232 129.296 23.1072 30.5608 108.464 123.064 31.7864 91.2776 23.8877 69.9366
internal_count=7796 3764 4032 1541 1393 1199 1123 1965 194 148 2223 2093 880 130 1051 750 491 349 142 946 850 633 96 103 833 592 197 395 116 217
is_linear=0
shrinkage=0.01


Tree=4
num_leaves=31
num_cat=0
split_feature=38 38 39 39 28 4 12 44 17 18 24 45 10 22 17 39 18 20 0 41 44 0 24 19 45 37 45 13 3 15
split_gain=452.423 52.8228 38.5363 31.0299 26.7952 28.041 25.7724 25.4877 18.6554 20.1274 15.7606 14.7615 16.5049 14.7598 14.4111 14.6063 12.8496 12.6784 12.0316 11.456 14.9234 12.1232 11.3787 12.5401 17.8242 16.2912 15.5503 10.7712 11.9477 10.3084
threshold=0.59644050000000004 0.82202350000000013 0.45899550000000006 0.66521600000000014 0.93257800000000002 0.11652100000000001 0.72101100000000007 0.072300000000000017 0.81534100000000009 0.57979600000000009 0.63254150000000009 0.0025460000000000005 0.48436700000000005 0.91464600000000018 0.089572000000000013 0.7900370000000001 0.20881750000000002 0.84747000000000006 0.43713400000000008 0.075330000000000022 0.0049650000000000015 0.015383500000000001 0.81157950000000012 0.038773000000000009 0.45534250000000004 0.8803295000000001 0.0011540000000000003 0.55627100000000007 0.15476200000000004 0.028811500000000004
decision_type=2 2 2 2 2 2 2 2 2 2 2 2 2 2 2 2 2 2 2 2 2 2 2 2 2 2 2 2 2 2
left_child=2 4 -1 13 5 16 8 -4 9 22 18 -9 -13 -3 -11 -16 27 -10 -7 -6 -21 -22 23 24 26 -25 29 28 -2 -5
right_child=1 3 7 6 19 10 -8 11 17 14 -12 12 -14 -15 15 -17 -18 -19 -20 20 21 -23 -24 25 -26 -27 -28 -29 -30 -31
leaf_value=-0.015587059213204192 -0.0011981609367206836 0.0038755412721519144 -0.011658512002279965 0.0026101370248426672 0.015718230258260614 0.0046743957547637398 0.011684294834865579 0.0056778772286244115 -0.014930512012254473 0.0045782534993956793 0.01427804160193097 -0.012486582274370248 0.0039769206107762483 -0.013451463360283716 0.0062375885793476728 -0.016238252763299887 -0.0067299086142258435 0.0027134664246085409 -0.0036428747748417588 0.011522225861315592 0.0068120640209582521 -0.011750922431695763 0.013336012505918197 0.0037327737525731427 -0.014596840108052449 0.011067277686036483 0.0088132138117991837 -0.014608992910251138 0.010997623735273417 -0.01484224187154984
leaf_weight=129.80047786375508 46.638722110539675 9.1323371492326277 58.582095430232584 8.9857080783694965 13.571320805698631 54.968184615019709 101.28367826342583 17.133410893380642 6.8416042216122177 19.813372379168868 12.113968916237353 16.162019131239507 9.7705689547583443 10.648952858522533 4.2875971011817446 8.8792290538549405 64.364968542009592 10.062570370733736 25.443004666827619 15.04019356891513 6.7942425385117513 7.2964753638952971 29.645722867920995 48.941074057947844 5.5355215072631827 79.439995992928743 28.089045053347945 4.8631825037300578 9.7041803840547782 5.4293280169367781
leaf_count=2507 560 62 1168 65 27 356 266 90 43 79 29 201 66 59 22 77 817 43 241 37 24 42 65 323 36 211 134 59 58 29
internal_value=0 0.00434587 -0.0119761 0.00673939 0.000885753 -0.000532578 0.00741448 -0.00736512 0.00572484 0.00644277 0.00364464 -0.00152487 -0.00628366 -0.00545218 -0.000810433 -0.0089193 -0.0036105 -0.00442756 0.00204272 0.0081297 0.0045944 -0.00280025 0.00760362 0.00664035 0.00228195 0.00827124 0.00448016 -0.000330097 0.000902372 -0.00396319
internal_weight=0 637.814 231.449 377.016 260.798 218.096 357.234 101.648 255.951 239.047 92.5252 43.066 25.9326 19.7813 32.9802 13.1668 125.571 16.9042 80.4112 42.7022 29.1309 14.0907 206.066 176.421 48.0396 128.381 42.5041 61.2061 56.3429 14.415
internal_count=7796 3764 4032 1514 2250 2120 1393 1525 1127 1041 626 357 267 121 178 99 1494 86 597 130 103 66 863 798 264 534 228 677 618 94
is_linear=0
shrinkage=0.01


Tree=5
num_leaves=31
num_cat=0
split_feature=38 38 38 39 28 0 44 11 22 40 24 16 18 32 10 18 41 45 14 40 13 24 41 0 36 15 17 44 41 18
split_gain=423.756 51.0355 33.2853 27.9149 25.5364 22.0171 20.4733 19.6903 13.4558 13.3061 12.9224 18.0651 13.3164 12.4932 12.4153 11.7606 11.7485 15.3844 19.0759 11.0034 15.4935 21.1594 13.4334 14.494 22.4824 13.049 12.0662 11.6536 10.8806 12.8042
threshold=0.59644050000000004 0.82202350000000013 0.33935600000000005 0.66521600000000014 0.85977750000000008 0.11670400000000002 0.021978500000000002 0.35221550000000007 0.92326800000000009 0.56349250000000006 0.24483450000000004 0.50471700000000019 0.28801850000000007 0.96248300000000009 0.38799250000000007 0.20881750000000002 0.68642100000000006 0.0023475000000000006 0.50228750000000011 0.26785700000000007 0.55078550000000004 0.13366550000000002 0.034582500000000009 0.29239800000000005 0.73379800000000006 0.0050255000000000013 0.13188400000000003 0.16143800000000003 0.075330000000000022 0.18677350000000001
decision_type=2 2 2 2 2 2 2 2 2 2 2 2 2 2 2 2 2 2 2 2 2 2 2 2 2 2 2 2 2 2
left_child=2 4 -1 8 5 15 -4 19 -3 13 11 12 14 -9 -7 -2 17 -8 -19 20 21 -5 -21 24 27 -26 -25 -24 -6 -30
right_child=1 3 6 7 28 10 16 9 -10 -11 -12 -13 -14 -15 -16 -17 -18 18 -20 22 -22 -23 23 26 25 -27 -28 -29 29 -31
leaf_value=-0.015839066465296363 -0.00044247478447041039 0.0029046622153404418 -0.012954811218355001 0.007914816761476956 0.014675838619405501 0.0084189196959599377 0.0033846343843704271 0.0098879164023992425 -0.014194950585650215 0.0035646344623726568 0.010377334492583745 -0.017476601169062991 -0.0043710138965172918 0.017842979474826718 -0.003339939203605537 -0.0068322359751676921 -0.015125469003656871 -0.013575004457895466 0.0019605814574116089 0.016235561661013781 0.016412235988332188 -0.009933928470371594 -0.013345501122202896 0.002467333061692049 -0.0076034617535978549 0.0078116261584361083 -0.010095772210323437 0.0090044589773114123 -0.0078054374454644892 0.0076139095005864754
leaf_weight=107.64965184777975 57.741265708114952 9.4969233348965663 49.372387962881476 63.798597473651171 14.529751673340796 34.337787593714893 23.751731576398015 78.384493513032794 8.9281916320323926 23.494001982733607 18.657856082543731 4.9108330681920043 20.255006782710552 26.387737557291985 12.158264867030082 57.477377109695226 8.8601317740976793 19.239670796785504 13.414362720213829 7.9327508062124243 18.12504056096077 7.4136307742446652 9.3194928057491762 17.198013126850132 5.9228217788040629 75.39380681142211 13.763016082346438 3.1119749732315531 6.9156099595129517 24.339762936346233
leaf_count=2067 665 66 1215 265 35 180 192 236 55 91 85 45 187 40 119 801 95 346 117 15 29 48 107 92 38 322 92 18 40 93
internal_value=0 0.00424711 -0.0118458 0.00661597 0.000772184 -0.00073227 -0.008096 0.0072471 -0.00538124 0.0103663 0.00296434 0.0010343 0.00239613 0.0118915 0.00534409 -0.00363004 -0.0044204 -0.00273886 -0.00719294 0.00544475 0.00815763 0.00605665 0.00361756 0.00281493 0.0047741 0.00668884 -0.00311731 -0.00775063 0.00752597 0.0042022
internal_weight=0 619.994 222.288 368.67 251.324 205.538 114.638 350.245 18.4251 128.266 90.3197 71.6619 66.7511 104.772 46.4961 115.219 65.2659 56.4058 32.654 221.979 89.3373 71.2122 132.642 124.709 93.7481 81.3166 30.961 12.4315 45.7851 31.2554
internal_count=7796 3764 4032 1514 2250 2082 1965 1393 121 367 616 531 486 276 299 1466 750 655 463 1026 342 313 684 669 485 360 184 125 168 133
is_linear=0
shrinkage=0.01


Tree=6
num_leaves=31
num_cat=0
split_feature=38 38 39 37 44 28 19 34 39 37 4 37 23 39 41 41 16 41 45 10 18 40 28 22 17 21 18 37 38 21
split_gain=396.709 50.9678 31.4948 26.1813 23.2848 21.4858 22.0188 19.0894 17.4026 17.309 21.469 18.2342 16.7813 20.997 16.0505 14.8372 14.1267 12.8729 13.9968 15.2249 12.7207 12.1898 11.8097 11.6833 11.3967 11.0157 10.4836 9.5718 9.07356 8.90173
threshold=0.59644050000000004 0.85559950000000018 0.45899550000000006 0.8803295000000001 0.072300000000000017 0.85977750000000008 0.0064245000000000005 0.8823875000000001 0.87857950000000007 0.82129750000000012 0.15960100000000002 0.97533300000000012 0.75294700000000014 0.8830825000000001 0.12168050000000001 0.81016750000000004 0.29599500000000006 0.61572800000000016 0.0025460000000000005 0.48436700000000005 0.10263150000000001 0.16025650000000005 0.164135 0.7092980000000001 0.72318000000000005 0.97027400000000019 0.80384600000000017 0.8296785000000001 0.6057935000000001 0.93617000000000006
decision_type=2 2 2 2 2 2 2 2 2 2 2 2 2 2 2 2 2 2 2 2 2 2 2 2 2 2 2 2 2 2
left_child=2 5 -1 7 -4 6 -2 8 15 10 14 -11 -7 -14 -8 16 24 18 -6 -20 23 25 -18 -12 27 -5 -22 -3 -16 -23
right_child=1 3 4 21 17 12 9 -9 -10 11 20 -13 13 -15 28 -17 22 -19 19 -21 26 29 -24 -25 -26 -27 -28 -29 -30 -31
leaf_value=-0.015035588146923072 -0.0095876952557629735 0.0041914288370987511 -0.011590463797084258 0.0062766746271072493 0.0082978122187426871 0.012732416326440708 0.0017707285046655802 0.014029933069993726 -0.013442920951280279 0.0078738983706406335 -0.017450243227530124 -0.010180278213006903 -0.011735166465433648 0.006821263924857858 0.0079807746202866497 -0.012396920309698368 0.0025168219324709236 -0.01608256585002384 -0.012253785169203384 0.0048355762897397863 0.0059065764011159436 0.011165023911409422 0.015050681044701015 0.0011366052395568838 -0.014242280921180192 0.016946853885369966 -0.009100396421089646 -0.0075141421776759587 -0.0085773891769731821 0.0060164743228254946
leaf_weight=120.3741966180969 22.108437586110085 41.860204426571727 54.820368192857131 13.784492043778299 14.132198056206105 25.737953264266253 28.431365478551015 14.257535947486756 7.0903983842581502 48.073947354219854 5.2574717458337537 6.3307924252003422 8.3599177002906817 22.534399013966322 3.5396949220448723 5.9856326654553405 13.754740715026857 5.3261101748794308 11.589146604295822 9.4756436301395279 61.60092686326243 52.518183311447501 16.577611736953259 9.4795687571167928 4.5785080417990676 32.45713946968317 5.0355523126199833 8.3849651254713518 50.873718147166073 93.13620874658227
leaf_count=2507 355 260 1168 47 67 78 274 35 55 311 36 48 36 81 30 41 83 56 177 57 398 193 47 71 26 65 39 70 763 322
internal_value=0 0.00417096 -0.011635 0.00704751 -0.00734162 0.00122648 -7.72784e-05 0.00321697 0.00164756 0.000884471 -0.000735086 0.00577303 0.00676848 0.00179994 -0.00431856 0.00282153 0.00389124 -0.00159371 0.00059879 -0.00456642 0.00291318 0.00929298 0.00936698 -0.00549429 0.000861669 0.0137661 0.00477254 0.00223799 -0.00750025 0.00787287
internal_weight=0 601.749 215.718 304.386 95.3435 297.364 240.731 112.49 98.2321 218.623 164.218 54.4047 56.6323 30.8943 82.8448 91.1417 85.156 40.5231 35.197 21.0648 81.3735 191.896 30.3324 14.737 54.8237 46.2416 66.6365 50.2452 54.4134 145.654
internal_count=7796 3764 4032 1244 1525 2520 2325 617 582 1970 1611 359 195 117 1067 527 486 357 301 234 544 627 130 107 356 112 437 330 793 515
is_linear=0
shrinkage=0.01


Tree=7
num_leaves=31
num_cat=0
split_feature=38 38 39 28 37 17 41 44 40 43 43 44 13 10 21 37 24 21 38 44 45 19 14 25 30 41 4 0 43 23
split_gain=374.351 44.7103 31.347 30.2359 19.8689 20.3727 18.1322 18.1261 17.2528 14.7972 14.5224 14.3959 14.0043 13.7128 12.9652 12.7056 12.3202 11.9346 11.6838 11.0416 10.9253 10.6065 18.1429 10.0865 9.64435 8.76276 8.67835 8.65242 8.64917 11.3169
threshold=0.59644050000000004 0.74798750000000014 0.58267150000000012 0.91000250000000016 0.82478900000000011 0.87867650000000019 0.24757200000000004 0.089403000000000024 0.81666650000000007 0.35440350000000004 0.21560300000000002 0.020121500000000004 0.74381500000000011 0.049109500000000007 0.97659000000000007 0.55041350000000011 0.57325800000000016 0.77472850000000004 0.86057100000000009 0.7165180000000001 0.40967350000000008 0.020676500000000004 0.033898000000000005 0.60707050000000007 0.59368450000000006 0.14933950000000004 0.033533500000000008 0.59962300000000013 0.10868000000000001 0.50207650000000015
decision_type=2 2 2 2 2 2 2 2 2 2 2 2 2 2 2 2 2 2 2 2 2 2 2 2 2 2 2 2 2 2
left_child=2 6 28 4 16 8 12 -4 11 19 -8 -6 13 26 -7 23 -3 -5 -19 25 -12 22 -13 -15 -24 -9 -2 -23 -1 -30
right_child=1 3 7 17 5 14 10 9 -10 -11 20 21 -14 15 -16 -17 -18 18 -20 -21 -22 27 24 -25 -26 -27 -28 -29 29 -31
leaf_value=-0.015245376289454618 0.00031352902876625939 -0.00043263442023968788 -0.0099708543649978335 0.018194745177170853 0.010230013440046355 -0.013398053176839422 -0.0074540114529276485 0.009418657510769703 -0.0034703069575459907 -0.012736304876288128 -0.0038768743329778079 0.01571386341408252 -0.016540560958327948 -0.009593037842389681 0.0040930281867631721 0.0071511855755893063 0.0070092035665469069 0.002089419141124317 0.011746052508369664 0.01711087003149275 0.015043767234349184 0.0080638181594401004 -0.012599899117995583 0.011355601079971649 0.0050196059165128308 -0.0068963603565636916 -0.013282576848889699 -0.0025786598914969354 -0.012350992431873653 0.0015305098025375755
leaf_weight=112.81853497470729 15.03162449412048 97.139599938876927 34.267816180363297 18.787105217576027 110.60084078134969 8.1633291784673929 46.643975655548275 6.027494230307644 14.465003119781612 5.7959331246092907 6.6850644387304765 4.5228985771536854 3.8381591215729705 8.8970040073618275 8.8128963764756918 56.44722539326176 28.854378407821059 17.215454634279013 46.030754420906305 5.7351674251258364 5.6153090372681618 57.768910454586148 10.143677523359655 3.0989902988076201 4.478048011660575 7.2539491895586252 6.8268911242485038 8.8034294731914979 31.649928948841989 7.21095125703141
leaf_count=2684 215 853 637 31 467 61 650 35 90 65 50 22 40 120 37 369 118 54 107 20 20 228 84 8 22 65 76 42 464 62
internal_value=0 0.00409335 -0.011437 0.00572648 0.00445805 0.00622073 -0.000555717 -0.00525757 0.00706949 0.00125179 -0.00490508 0.00784608 0.00216757 0.00296274 -0.00431788 0.00516496 0.00127165 0.0111964 0.00911754 0.00551511 0.00476069 0.00477009 -0.00178949 -0.00418126 -0.00720375 0.000507856 -0.00393283 0.00665647 -0.0138439 -0.00977517
internal_weight=0 588.871 210.76 435.786 353.753 227.759 153.084 59.0804 210.783 24.8125 58.9443 196.318 94.1399 90.3017 16.9762 68.4432 125.994 82.0333 63.2462 19.0166 12.3004 85.717 19.1446 11.996 14.6217 13.2814 21.8585 66.5723 151.679 38.8609
internal_count=7796 3764 4032 2216 2024 1053 1548 822 955 185 720 865 828 788 98 497 971 192 161 120 70 398 128 128 106 100 291 270 3210 526
is_linear=0
shrinkage=0.01


Tree=8
num_leaves=31
num_cat=0
split_feature=38 38 39 39 44 28 0 36 28 18 18 17 0 37 23 15 18 43 28 19 16 15 17 45 23 21 32 35 17 43
split_gain=352.179 39.567 32.3889 24.4034 23.8316 21.9745 22.7901 18.0668 16.5842 11.1813 15.2396 11.1489 10.8303 10.6283 12.6621 10.3358 10.1783 9.4271 9.32244 9.16905 24.9736 8.82599 8.75371 19.2343 8.45984 25.3709 8.16405 9.29038 11.018 7.5691
threshold=0.59644050000000004 0.82202350000000013 0.49437550000000002 0.66206500000000013 0.072300000000000017 0.85977750000000008 0.062540500000000013 0.79473000000000005 0.35098200000000007 0.065591500000000011 0.18561600000000003 0.41523000000000004 0.17972000000000002 0.89425650000000012 0.89712800000000015 0.19337850000000004 0.10263150000000001 0.0011330000000000001 0.35098200000000007 0.038773000000000009 0.17974350000000003 0.012300000000000002 0.29520700000000005 0.0029915000000000007 0.76405250000000013 0.9462735000000001 0.96248300000000009 0.049678500000000007 0.88348400000000016 9.7500000000000012e-05
decision_type=2 2 2 2 2 2 2 2 2 2 2 2 2 2 2 2 2 2 2 2 2 2 2 2 2 2 2 2 2 2
left_child=2 5 -1 15 -4 6 9 12 13 -2 -11 22 -8 14 29 -3 -14 -18 -12 20 -15 -22 23 -6 -7 -26 27 28 -10 -5
right_child=1 3 4 8 11 24 7 -9 26 10 18 -13 16 19 -16 -17 17 -19 -20 -21 21 -23 -24 -25 25 -27 -28 -29 -30 -31
leaf_value=-0.014516399777966267 -0.015335691237963949 0.0014144544350935589 -0.011200219808840249 -0.0041351554398870562 0.0072044066578695358 0.011783578441379316 -0.0052744270077226332 0.0096248015337328501 0.010651248644904862 0.002456216447599109 -0.010202714606359643 -0.0088279619838641746 -0.0061594763775115573 -0.010324746556803903 -0.01103468533411401 -0.014510566943023405 -0.0031169456750316103 0.0070168780097548331 -0.00061364458262882636 0.0087385043203015329 0.015005558830807779 0.0023107939429262096 0.012050300365479563 -0.015113140731570376 -0.0081038090152601855 0.01300928688798531 0.014094543677334124 0.00063537737333152651 0.0010346310299668379 0.0046633320712702901
leaf_weight=123.55265990877524 8.7081145290285331 9.0875852219760436 44.960228542331606 11.657931247726081 10.966159563511615 21.10314049012959 26.029986107721925 25.998644664883614 81.719387048855424 27.942391329444945 29.794384292326868 10.603505890816448 11.14228364266455 10.466068461537359 6.794252071529626 7.3894666247069827 12.308530491776763 36.112979341298342 15.36809589806944 75.969313345849514 10.60555547103286 11.324565198272465 7.9794294107705346 5.9608611180447033 10.821916916407645 12.005771066993475 28.892794776707888 14.40655145049095 13.947426509112118 60.617144446820021
leaf_count=2726 129 54 999 120 59 74 316 132 282 348 535 108 90 98 54 64 146 190 196 220 28 49 39 101 56 38 59 58 51 377
internal_value=0 0.00397377 -0.0113009 0.0061464 -0.00636385 0.000834997 -0.000615201 0.00232402 0.0067458 -0.00462428 -0.00334836 -0.000240369 0.00010645 0.00480491 0.00201719 -0.00572744 0.00245795 0.00444091 -0.0069397 0.00683898 0.00238459 0.00845007 0.00341566 -0.000654732 0.00721949 0.00300021 0.00936363 0.00812183 0.00924923 0.00324414
internal_weight=0 580.214 204.023 342.878 80.4702 237.336 193.405 111.592 326.401 81.813 73.1049 35.51 85.5938 187.435 79.0693 16.4771 59.5638 48.4215 45.1625 108.366 32.3962 21.9301 24.9065 16.927 43.9308 22.8277 138.966 110.073 95.6668 72.2751
internal_count=7796 3764 4032 1514 1306 2250 2082 874 1396 1208 1079 307 742 946 551 118 426 336 731 395 175 77 199 160 168 94 450 391 333 497
is_linear=0
shrinkage=0.01


Tree=9
num_leaves=31
num_cat=0
split_feature=38 28 22 39 44 0 24 21 22 37 17 40 41 43 16 40 17 19 43 17 4 40 26 18 40 38 11 38 20 16
split_gain=332.639 37.5599 34.1843 29.6094 21.9726 20.3021 17.2737 15.4342 13.9161 12.0409 18.0734 18.1891 11.3605 11.2991 11.2028 12.8913 11.1501 10.4548 10.1662 9.94596 9.52462 9.41804 9.40946 9.34523 13.2544 9.31659 8.71983 8.31873 7.50102 8.80257
threshold=0.59644050000000004 0.91000250000000016 0.76829850000000011 0.45899550000000006 0.072300000000000017 0.061468500000000002 0.89258850000000012 0.7178675000000001 0.68348400000000009 0.82478900000000011 0.87867650000000019 0.81666650000000007 0.61572800000000016 0.05295600000000001 0.28679650000000007 0.43650750000000005 0.41523000000000004 0.0065505000000000008 0.35440350000000004 0.27682000000000007 0.037832000000000011 0.37980750000000002 0.00076100000000000007 0.23904750000000002 0.58571450000000003 0.74100250000000012 0.32519250000000005 0.76527250000000013 0.79848750000000013 0.080322500000000005
decision_type=2 2 2 2 2 2 2 2 2 2 2 2 2 2 2 2 2 2 2 2 2 2 2 2 2 2 2 2 2 2
left_child=3 2 5 -1 -5 -2 9 23 -9 20 11 13 16 -11 15 -15 18 26 -6 -20 -4 -19 -16 24 -7 -10 -3 -22 29 -29
right_child=1 17 6 4 12 7 -8 8 25 10 -12 -13 -14 14 22 -17 -18 21 19 -21 27 -23 -24 -25 -26 -27 -28 28 -30 -31
leaf_value=-0.014563064448238405 -0.0054706501548184173 0.010339498299433569 -0.010833397182787521 -0.011170111242223644 0.0082192660088400201 -0.00086469405313622215 0.011137819520749494 0.01590133736463395 -0.013661482489410206 0.0083486374347912212 -0.007677157416538685 -0.0065725311739401708 -0.015393394466733264 -0.011820733918076917 0.012482953272709556 0.0054765145438378602 -0.0087033613192207399 0.014010664534807213 -0.017639855308468091 0.0065606804215624362 0.014304161438556394 0.0068130738011111872 0.00084977004467375777 -0.0060792275033972991 0.013541867459720002 0.007767538396849594 -0.0026659446036872915 0.0035869852730295057 0.0042274903908925783 -0.0048174666074766656
leaf_weight=110.52530083246529 65.222200806252658 9.4535510726273078 6.3880863375961772 50.492901318240911 18.188928210176531 28.355087639763951 35.015311077237129 12.84844999201596 3.3213819526135904 122.60548947006464 10.275833735242484 10.874198101460932 4.9026322849094859 9.3082163855433482 13.353724250569941 8.021894268691538 8.9242740189656597 47.239240646362305 3.5633560223504892 3.2445015097036958 5.0223734825849524 29.552922122180462 14.505613945424555 20.305716407485306 8.2425111923366767 5.2135464642196894 11.338746443390844 20.792109098285437 42.177204962819815 31.105876631103456
leaf_count=2507 1033 35 96 1168 123 249 109 32 46 539 73 75 56 62 44 39 104 113 54 20 24 86 55 236 23 43 46 189 237 280
internal_value=0 0.00388897 0.0027235 -0.0111028 -0.00682093 -0.00134989 0.0044979 0.00208319 0.00932635 0.00370824 0.00521925 0.00596096 -0.00116451 0.00677322 0.00249887 -0.00381405 0.000891998 0.00953754 0.0043177 -0.00610632 0.00100174 0.0112407 0.00642587 -0.000638672 0.00237995 -0.000571602 0.00324719 0.00176467 0.00109522 -0.00145036
internal_weight=0 570.539 472.955 199.842 89.3166 143.509 329.446 78.2867 21.3834 294.431 188.945 178.669 38.8237 167.795 45.1894 17.3301 33.9211 97.5845 24.9968 6.80786 105.486 76.7922 27.8593 56.9033 36.5976 8.53493 20.7923 99.0976 94.0752 51.898
internal_count=7796 3764 3484 4032 1525 1662 1822 629 121 1713 887 814 357 739 200 101 301 280 197 74 826 199 99 508 272 89 81 730 706 469
is_linear=0
shrinkage=0.01


Tree=10
num_leaves=31
num_cat=0
split_feature=38 38 39 28 37 44 0 17 21 43 21 40 37 44 39 20 16 36 20 18 1 12 43 16 10 10 44 0 38 20
split_gain=311.552 34.1371 29.202 19.4078 17.8247 17.1101 15.6775 15.4804 13.6958 12.3996 12.3587 11.8209 11.126 10.6396 12.7267 10.7301 11.7255 10.3847 10.1623 10.0113 10.2878 12.0086 9.84586 9.32493 9.18167 9.87233 8.84007 13.3715 8.48007 13.6975
threshold=0.59644050000000004 0.74798750000000014 0.58267150000000012 0.91000250000000016 0.82129750000000012 0.16143800000000003 0.061468500000000002 0.81534100000000009 0.7178675000000001 0.28606000000000004 0.77472850000000004 0.84523800000000004 0.8803295000000001 0.12034500000000002 0.72057450000000001 0.80340100000000014 0.070751500000000009 0.83446100000000012 0.34077050000000003 0.68990400000000018 0.68627450000000012 0.50460200000000011 0.0011330000000000001 0.26352350000000008 0.56341100000000011 0.12700500000000003 0.7165180000000001 0.018886500000000004 0.35455650000000005 0.27883300000000005
decision_type=2 2 2 2 2 2 2 2 2 2 2 2 2 2 2 2 2 2 2 2 2 2 2 2 2 2 2 2 2 2
left_child=2 6 28 4 13 -4 19 11 -8 26 -5 22 -12 15 -15 16 -3 -17 -18 20 21 -2 -6 -23 25 -9 27 -7 -1 -30
right_child=1 3 5 10 7 9 8 24 -10 -11 12 -13 -14 14 -16 17 18 -19 -20 -21 -22 23 -24 -25 -26 -27 -28 -29 29 -31
leaf_value=-0.015124178036699224 -0.0045973844909437877 0.0017920045349392978 -0.0087834735947491267 0.017130085912219574 0.010237032821605364 -0.013788046107368317 1.2070858259594886e-06 -0.0061808903578973989 0.0094629710848263791 -0.010788480143145929 0.000420995404604253 -0.0043901198475065229 0.010107811982695123 -0.0023212683093919127 0.010165320226371012 0.01102606263383697 0.006766492481196225 -0.0005925645673237834 -0.010735734955364099 -0.015841261442605607 -0.014782565057528951 -0.00031453911398154482 0.0055276221356109038 0.014230203809533742 -0.012426626527417238 0.010422098038633247 0.016912679739231568 0.011758156004356873 -0.0018378855264486625 -0.013336078255354787
leaf_weight=90.156378369778395 37.016938388347626 20.007146971300244 35.939658682793379 17.404816016554832 69.290884997695684 3.5430226065218466 52.879412190057337 7.237513539381327 21.525949643924832 4.9312993157654992 16.028383176773787 9.1877080863341671 45.560517057776451 12.827705029398201 22.444995699450374 11.562207242473958 3.8604042083025005 22.986729643307626 23.587099578231573 6.3622264815494409 6.2987420260906211 11.545780899934472 123.55045467056334 7.1299909055232993 6.3301779218018046 7.0894283317029476 5.9543625526130191 4.8587385639548302 14.596735303755848 35.699364725034684
leaf_count=2041 660 206 674 31 304 32 483 48 91 66 44 69 117 82 107 52 19 194 292 91 76 115 572 32 45 34 18 32 266 903
internal_value=0 0.00378546 -0.0108665 0.0052245 0.00418701 -0.00470591 -0.000437699 0.00584871 0.00273856 0.00289212 0.00968952 0.0066918 0.00758684 0.00103173 0.00562429 -0.000943691 -0.00403018 0.00329575 -0.0082741 -0.00389516 -0.00266913 -0.00129912 0.00721979 0.00523832 -0.00239677 0.0020348 0.00759137 0.000985323 -0.0132889 -0.00999912
internal_weight=0 561.715 195.68 418.956 339.962 55.2271 142.759 222.686 74.4054 19.2874 78.9937 202.029 61.5889 117.276 35.2727 82.0036 47.4547 34.5489 27.4475 68.3537 61.9915 55.6927 192.841 18.6758 20.6571 14.3269 14.3561 8.40176 140.452 50.2961
internal_count=7796 3764 4032 2216 2024 822 1548 1072 574 148 192 945 161 952 189 763 517 246 311 974 883 807 876 147 127 82 82 64 3210 1169
is_linear=0
shrinkage=0.01


Tree=11
num_leaves=31
num_cat=0
split_feature=38 38 23 44 24 37 10 41 37 15 37 37 38 17 41 38 36 40 38 36 33 31 31 18 10 23 23 44 39 15
split_gain=295.743 30.5198 27.4306 21.5121 19.8812 15.8223 14.1742 14.104 12.1345 10.8277 18.3263 14.1248 16.3961 10.6294 10.4377 10.0205 14.7749 11.7862 9.42431 9.10616 9.02693 11.1521 9.64035 8.75175 8.71624 11.8758 12.4352 10.6449 8.43497 8.89364
threshold=0.59644050000000004 0.74798750000000014 0.50207650000000015 0.072300000000000017 0.86848350000000007 0.86515650000000011 0.049109500000000007 0.075330000000000022 0.71956550000000019 0.16041400000000003 0.55041350000000011 0.91996750000000016 0.6057935000000001 0.41523000000000004 0.90081950000000011 0.85106350000000008 0.97156000000000009 0.21111100000000002 0.67775350000000012 0.95564700000000014 0.031217000000000005 0.22069550000000002 0.023860500000000003 0.18019450000000004 0.15807150000000003 0.99989150000000004 0.87894250000000007 0.23956500000000003 0.96403700000000014 0.16041400000000003
decision_type=2 2 2 2 2 2 2 2 2 2 2 2 2 2 2 2 2 2 2 2 2 2 2 2 2 2 2 2 2 2
left_child=2 6 -1 -4 5 14 19 8 -8 11 -11 12 -9 -5 20 16 -7 28 -12 -2 21 22 -3 -20 -6 26 27 -26 29 -17
right_child=1 4 3 13 24 15 7 9 -10 10 18 -13 -14 -15 -16 17 -18 -19 23 -21 -22 -23 -24 -25 25 -27 -28 -29 -30 -31
leaf_value=-0.013672121514264642 -0.0079881373305216545 0.0020432762768939801 -0.010604592002172838 0.0041535718701285135 0.013185863938077818 0.0055370893300539748 0.0023432104608465888 0.010676464354545058 0.016607322309698653 -0.0091511446755133691 0.013825251727546702 0.0081508497544842511 -0.0084377949631529291 -0.0088864670072291169 -0.011047020466085231 -0.0006116673484266302 -0.0092040341495426593 0.0050865450472795731 0.00883076771830478 0.0058868131629821047 -0.0045498434136960518 0.0081263233374303818 -0.013411007673556215 -0.010316097081375574 0.00054773919247654641 0.014099751990666504 -0.0063323410798224967 0.015597869489584318 0.014216474867697327 0.013111923699563153
leaf_weight=119.29076768318191 29.907473068218678 91.882300111465156 40.819160454906523 22.09436846384779 36.232780603691936 21.29324348457158 14.749286551028492 5.1502558551728717 10.012538908049462 7.8860786454752114 13.705733967944981 8.5933398902416211 34.885370190721005 8.7174206636846048 6.2372054466977707 10.171141548082234 9.9888944979757053 101.4701965674758 5.8473417125642282 5.6187824793159953 17.626444486901164 32.684941966086626 4.2218759823590508 4.0343283135443926 10.073452822864061 13.889029890298842 9.7611167728900892 8.8094870597124082 31.140664629638195 8.8145783245563489
leaf_count=2819 516 749 945 175 107 148 91 37 28 102 52 48 543 93 53 52 74 425 33 36 155 162 54 62 45 30 33 21 78 30
internal_value=0 0.00369492 -0.0107349 -0.00584338 0.00506038 0.003999 -0.000334607 0.00151484 0.00811096 -0.000524197 0.00404584 -0.003482 -0.0059789 0.000464221 0.00162218 0.00598299 0.000830009 0.00704632 0.00845804 -0.00579369 0.00216188 0.00308046 0.00136437 0.0010138 0.00958167 0.00651135 0.00283187 0.0075691 0.0110135 0.00575984
internal_weight=0 554.688 190.922 71.6309 414.297 335.531 140.391 104.864 24.7618 80.1024 31.4735 48.629 40.0356 30.8118 152.653 182.879 31.2821 151.597 23.5874 35.5263 146.416 128.789 96.1042 9.88167 78.7659 42.5331 28.6441 18.8829 50.1264 18.9857
internal_count=7796 3764 4032 1213 2216 1980 1548 996 119 877 249 628 580 268 1173 807 222 585 147 552 1120 965 803 95 236 129 99 66 160 82
is_linear=0
shrinkage=0.01


Tree=12
num_leaves=31
num_cat=0
split_feature=38 36 39 44 34 41 11 4 18 34 18 44 1 28 18 18 4 28 43 21 17 36 22 4 43 40 4 10 0 15
split_gain=288.812 30.2006 25.3877 20.004 19.1052 17.8573 17.1755 19.0419 13.9551 11.6043 11.1491 10.8379 14.2154 12.8953 14.9777 11.9788 12.0652 10.8286 10.0915 9.95792 9.94736 9.9468 9.83492 9.78963 9.51233 9.40165 14.0789 9.34492 9.03147 11.349
threshold=0.59644050000000004 0.79473000000000005 0.49437550000000002 0.15316550000000004 0.85676950000000007 0.92759400000000014 0.42869750000000001 0.035778000000000004 0.8944445000000002 0.00063450000000000008 0.56385850000000015 0.60645150000000003 0.17424250000000005 0.34820950000000006 0.044466500000000013 0.18898800000000002 0.19689950000000003 0.94882250000000001 0.00045500000000000006 0.83563900000000013 0.16869950000000003 0.77066000000000012 0.86923000000000006 0.17053500000000002 0.00029150000000000004 0.11805550000000002 0.29198750000000007 0.50854050000000017 0.42272250000000006 0.18118000000000004
decision_type=2 2 2 2 2 2 2 2 2 2 2 2 2 2 2 2 2 2 2 2 2 2 2 2 2 2 2 2 2 2
left_child=2 4 -1 -4 8 6 7 17 9 11 -11 12 13 14 -2 28 21 -3 -18 20 -9 -17 27 -7 -14 -21 -27 -6 29 -16
right_child=1 5 3 -5 22 23 -8 19 -10 10 -12 -13 24 -15 15 16 18 -19 -20 25 -22 -23 -24 -25 -26 26 -28 -29 -30 -31
leaf_value=-0.013682475696945374 -0.011123986779220201 -0.0044829092036753103 -0.0097804284937604239 0.0012813659410223568 -0.0086156916980041076 -0.013659870409037034 0.0093372146345400107 0.0066497033340327987 -0.013549594265438647 -0.01503957156899322 0.0093390710717422051 0.0082269527216307457 0.008500555235863327 0.0080008724198905173 0.0025941406593288298 -0.0096978414882440238 -0.007982866858449917 0.0075784821258795985 0.0056663858758062811 0.01314981302839432 -0.0033219381655288883 0.0064740214567024701 0.017181784145331076 0.0034388594332012998 -0.0078464039226521475 0.0076457093683324684 -0.0035680652129458806 0.011937439142533103 -0.0045575062557435602 0.013638736703475578
leaf_weight=113.35295443981886 10.588250199332832 31.596651558764279 49.948463956359774 24.302103790920228 3.9776310585439223 7.1211020909249765 109.15803949069232 20.157362645491958 7.3200185708701602 8.3760880511254054 2.4173600580543271 19.085391430184245 4.0838289242237833 26.068263579159975 22.60608270438388 21.080179706215862 7.0412991857156184 9.7374649140983802 23.478059710934758 23.397882785648108 19.86091267131269 4.6405866127461186 10.174702018499373 6.3202566727995872 27.735685209743679 78.550829894840717 13.057112373411654 4.9841069057583809 7.9702491573989382 15.810941903851925
leaf_count=2726 111 418 1081 225 62 79 430 125 82 137 12 97 42 142 257 365 100 37 152 63 156 36 18 25 244 326 69 17 91 71
internal_value=0 0.00367559 -0.0107052 -0.00615992 0.000891463 0.00566086 0.00615716 0.00438932 1.29924e-05 0.000506958 -0.0095796 0.00107938 0.000282121 0.00165979 0.000199739 0.00136803 -0.00173476 -0.00164149 0.00251729 0.00599732 0.00170082 -0.00678009 0.0104537 -0.00561988 -0.00574838 0.00749237 0.00604738 0.00281502 0.00512986 0.00713966
internal_weight=0 546.396 187.604 74.2506 227.439 318.958 305.516 196.358 208.302 200.982 10.7934 190.189 171.103 139.284 113.216 102.627 56.2401 41.3341 30.5194 155.024 40.0183 25.7208 19.1364 13.4414 31.8195 115.006 91.6079 8.96174 46.3873 38.417
internal_count=7796 3764 4032 1306 2036 1728 1624 1194 1939 1857 149 1708 1611 1325 1183 1072 653 455 252 739 281 401 97 104 286 458 395 79 419 328
is_linear=0
shrinkage=0.01


Tree=13
num_leaves=31
num_cat=0
split_feature=38 28 22 38 0 44 24 21 22 37 17 40 18 40 23 21 41 22 38 45 4 19 45 45 16 15 38 19 40 24
split_gain=281.079 27.8484 28.0727 24.4059 18.3826 17.0811 16.71 11.731 11.4366 10.6887 15.3257 13.927 9.81961 11.4352 9.78343 13.406 10.1772 13.0941 8.67112 8.46651 8.09619 7.79555 8.75382 7.94979 9.87145 7.92162 7.41136 7.36902 8.50871 7.88177
threshold=0.59644050000000004 0.91000250000000016 0.76829850000000011 0.33935600000000005 0.061468500000000002 0.021978500000000002 0.89258850000000012 0.7178675000000001 0.68348400000000009 0.82478900000000011 0.87867650000000019 0.81666650000000007 0.23904750000000002 0.58571450000000003 0.50207650000000015 0.23066400000000001 0.14933950000000004 0.34349350000000006 0.74100250000000012 0.31906250000000008 0.037832000000000011 0.037507000000000006 0.42403850000000004 0.0029915000000000007 0.04939000000000001 0.015980000000000005 0.76527250000000013 0.0065505000000000008 0.37980750000000002 0.85990800000000012
decision_type=2 2 2 2 2 2 2 2 2 2 2 2 2 2 2 2 2 2 2 2 2 2 2 2 2 2 2 2 2 2
left_child=3 2 4 -1 -2 -5 9 12 -9 20 11 21 13 -6 15 -7 19 -18 -10 -16 -4 22 23 -11 25 -25 -22 29 -29 -3
right_child=1 27 6 5 7 14 -8 8 18 10 -12 -13 -14 -15 16 -17 17 -19 -20 -21 26 -23 -24 24 -26 -27 -28 28 -30 -31
leaf_value=-0.014367274469569834 -0.0052912560452570102 0.008065528971633526 -0.010618264084384418 -0.011949854079605396 -0.00065458313636840694 0.006597600368480153 0.010777446684008065 0.014014574555579423 -0.013565775348222538 -0.00050561146344538341 -0.0079051406790527582 -0.0066038865352829202 -0.0064482832174244812 0.012941721119436147 0.010429940405160805 -0.013889352839452243 0.01676745208013599 -0.0082325236393813693 0.0071490458261881246 -0.0051972424561724621 0.013702229078243222 0.0078605797130135973 -0.0076012756006983585 -0.013644285034500941 0.010318412201564946 0.0074565688478493907 0.00085026881427091019 0.01293865539072939 0.0058974282405579439 -0.0052175489749034321
leaf_weight=89.804718040861189 60.525100448634475 12.183148015290501 5.8547014137729994 41.299376877956092 24.585062583908439 4.1093549523502615 34.933282280340791 13.45217862352729 3.2722335048019868 19.058355808258057 8.9145993404090387 8.9522539936006051 17.847802687436342 8.2655748631805164 11.059064252767714 14.34058862319216 2.3848653007298735 17.24013486970216 5.2836247440427542 5.0500614671036592 4.7290708124637595 103.8844003751874 6.529132191091775 3.5002198070287696 27.007276341319084 3.6183639094233513 87.669258330948651 43.546589724719524 28.325010385364294 7.0532808844000092
leaf_count=2067 1033 48 96 1215 249 43 109 32 46 129 73 75 236 23 77 326 9 242 43 53 24 382 45 42 123 18 706 113 86 33
internal_value=0 0.00365254 0.00262734 -0.010625 -0.00122009 -0.00710525 0.00425645 0.00216898 0.00826557 0.00344206 0.00488045 0.00554101 -0.000477527 0.00276639 -0.00341267 -0.00932629 -0.000359396 -0.00519448 -0.000773448 0.00553096 0.000785467 0.00620559 0.00332637 0.0046679 0.00755717 -0.00291876 0.00150805 0.00869234 0.0101637 0.00319512
internal_weight=0 538.991 447.882 185.288 133.232 95.4834 314.651 72.7065 22.008 279.718 181.465 172.55 50.6984 32.8506 54.1841 18.4499 35.7341 19.625 8.55586 16.1091 98.253 163.598 59.7133 53.1842 34.1259 7.11858 92.3983 91.108 71.8716 19.2364
internal_count=7796 3764 3484 4032 1662 1965 1822 629 121 1713 887 814 508 272 750 369 381 251 89 130 826 739 357 312 183 60 730 280 199 81
is_linear=0
shrinkage=0.01


Tree=14
num_leaves=31
num_cat=0
split_feature=38 22 39 28 24 0 37 44 37 16 43 17 41 18 45 12 41 32 20 28 19 43 38 26 14 40 44 41 17 43
split_gain=268.473 26.1824 23.0726 19.3955 16.4823 15.4365 15.2563 14.574 14.337 12.6379 11.6757 10.5247 10.2919 9.4428 9.69493 12.3902 9.24012 10.8898 8.92315 8.82384 12.1303 8.74491 8.7972 8.38359 9.22593 7.88432 12.5603 8.835 8.68128 7.82863
threshold=0.59644050000000004 0.76592300000000002 0.58267150000000012 0.85977750000000008 0.87280150000000012 0.062540500000000013 0.86515650000000011 0.16143800000000003 0.55041350000000011 0.076340500000000019 0.28606000000000004 0.44058800000000004 0.90081950000000011 0.084523500000000015 0.62554350000000014 0.99791300000000016 0.11683550000000002 0.21943000000000004 0.90601950000000009 0.71881950000000006 0.037507000000000006 3.6500000000000006e-05 0.98949450000000005 0.34760500000000005 0.30867950000000005 0.21111100000000002 0.019616000000000005 0.40094950000000007 0.68990400000000018 0.061403000000000006
decision_type=2 2 2 2 2 2 2 2 2 2 2 2 2 2 2 2 2 2 2 2 2 2 2 2 2 2 2 2 2 2
left_child=2 3 29 5 6 -2 12 -4 -7 -10 -9 -11 13 14 15 -3 -15 21 -5 20 25 -18 -23 -6 -25 -8 27 -27 -28 -1
right_child=1 4 7 18 23 8 19 10 9 11 -12 -13 -14 16 -16 -17 17 -19 -20 -21 -22 22 -24 24 -26 26 28 -29 -30 -31
leaf_value=-0.014412960250169422 -0.0054875087937741561 -0.0053834567455784063 -0.0087214723802061817 0.0096841415137645607 0.0031103736733282435 -0.0075434570182878434 0.0073318476816444543 0.0072580936950252086 0.0093209828650291267 -0.0060274847700375013 -0.011209288318292434 0.0060997788231906417 -0.013961938391969355 0.0091970356468597733 -0.017493029288269176 0.014351763604164996 -0.0060725996405945858 -0.0066766757790425726 -0.00095570102592415723 0.011055753515922853 0.0072497014593160556 0.0028447180580492321 0.012352829123424643 0.015306628938252114 0.0066879713251832519 0.0079846407684843121 -0.013769293314302582 -0.0055225343331038994 0.0030132366686837272 -0.0091462775963469922
leaf_weight=88.954022588208318 57.549197432585061 13.317064059898263 33.344635560642928 26.360081350430846 15.397297680377958 13.662182886153458 14.558287462219594 13.221964496187868 23.94151088129729 15.719700207002463 4.6196497520431867 13.136536944657562 4.1313789896666995 21.107866194099188 4.2589368317276231 4.179702738299965 8.8879537116736156 12.852414289489387 11.244567198678849 29.328679433092475 88.794292958453298 56.974954832345247 11.735274381935595 28.418344415724277 22.062867360189557 14.366882586851718 10.009590882807968 7.304779775440692 4.4536851905286303 41.339975962415338
leaf_count=2523 1008 139 674 98 49 189 72 82 144 194 66 74 47 118 23 18 110 117 55 92 321 440 50 69 76 86 86 59 30 687
internal_value=0 0.00357249 -0.0105071 0.000211644 0.00503204 -0.00169603 0.00405597 -0.00481831 0.00158709 0.00394975 0.00247642 -0.000506659 0.00158243 0.00206414 -0.00396252 -0.000669023 0.00323944 0.00184915 0.00650261 0.00606986 0.00502152 0.00326127 0.00446864 0.00956968 0.0115398 0.00111864 -0.00138457 0.00343183 -0.00860144 -0.0127419
internal_weight=0 533.754 181.48 161.614 372.14 124.009 306.262 51.1862 66.4599 52.7977 17.8416 28.8562 137.446 133.314 21.7557 17.4968 111.558 90.4506 37.6046 168.816 139.488 77.5982 68.7102 65.8785 50.4812 50.6932 36.1349 21.6717 14.4633 130.294
internal_count=7796 3764 4032 1762 2002 1609 1808 822 601 412 148 268 1062 1015 180 157 835 717 153 746 654 600 490 194 145 333 261 145 116 3210
is_linear=0
shrinkage=0.01


Tree=15
num_leaves=31
num_cat=0
split_feature=38 22 38 28 44 36 34 30 0 2 41 11 37 18 16 44 20 41 22 14 20 21 38 40 43 45 38 18 26 44
split_gain=258.283 25.3305 23.9319 17.0731 16.04 15.8028 18.6499 15.9538 15.5995 14.742 14.0517 13.5374 13.4743 11.1182 11.7202 9.81345 10.7947 8.84885 12.4452 12.1818 8.45372 8.93015 10.8659 10.4955 14.101 12.6394 10.1578 8.40356 9.2859 10.1525
threshold=0.59644050000000004 0.76592300000000002 0.33935600000000005 0.85977750000000008 0.021978500000000002 0.79901000000000011 0.96295050000000015 0.99820200000000014 0.062540500000000013 0.58571450000000003 0.92759400000000014 0.35552250000000002 0.55041350000000011 0.23904750000000002 0.020305000000000004 0.019284000000000006 0.73139500000000013 0.14933950000000004 0.34349350000000006 0.10547200000000001 0.80952050000000009 0.8629785000000002 0.78706350000000003 0.10555550000000001 0.0053720000000000009 0.14119350000000003 0.9276350000000001 1.0000000180025095e-35 0.69257150000000001 0.13881150000000003
decision_type=2 2 2 2 2 2 2 2 2 2 2 2 2 2 2 2 2 2 2 2 2 2 2 2 2 2 2 2 2 2
left_child=2 3 -1 8 -4 6 7 9 -2 27 11 20 -10 15 -15 -14 -17 19 -19 -6 -7 22 -22 -23 -25 26 -26 -3 29 -29
right_child=1 5 4 -5 17 10 -8 -9 12 -11 -12 -13 13 14 -16 16 -18 18 -20 -21 21 23 -24 24 25 -27 -28 28 -30 -31
leaf_value=-0.014187364393052335 -0.0054625903149822467 -0.0099497232061061223 -0.011650062725272524 0.0061176252227227029 -0.0094181212950590204 0.013579364476452326 0.013837457027916441 -0.01541792851992178 -0.0072394608069376977 0.01087581264557258 -0.0074391245304389758 0.010034087276568458 0.011028888089963853 0.0093090076364988356 -0.0082720844032729765 -0.0074098465844396125 0.011416714253540796 0.011049095123946067 -0.0088684319851244815 0.0068681936593856406 0.013851995733796885 0.012247121840057907 -0.0022892905605068517 0.0078908463000868304 -0.016875161593446032 0.0056957743015134989 -0.00096007300811226865 0.00011579385217782626 -0.013075457532399776 0.0087844698483086556
leaf_weight=86.153685169061646 56.432869864627719 7.4140699580311766 39.803070631343871 37.444954670034349 6.7043109163641956 10.736364400014279 12.312066130340098 5.7018872350454322 13.497253876179455 15.212984152138231 7.0309801921248427 86.79911788739264 23.045141877606511 5.5914292586967376 11.780953266657887 7.6512627862393838 5.0595202594995499 3.5366710107773569 27.768954101484269 14.581595385912804 4.8517046226188532 20.53303375095129 29.702980166301131 45.106522371992469 6.1507172789424667 16.375010896474123 11.524332731962204 66.2209507599473 4.3670625966042271 16.973303597420454
leaf_count=2067 1008 67 1215 153 109 35 34 26 189 63 62 307 118 39 161 70 24 31 469 141 26 58 241 202 52 66 51 568 33 111
internal_value=0 0.00351872 -0.010396 0.000205105 -0.00686069 0.00496785 0.00213577 0.00089259 -0.00159399 0.00173661 0.00648821 0.00691069 0.00168277 0.00394946 -0.00261348 0.00713814 8.40557e-05 -0.00323594 -0.0066183 0.00173858 0.00504073 0.00435785 -2.2948e-05 0.00587633 0.00422376 -0.000634072 -0.00649834 0.000272704 0.00113827 0.00188438
internal_weight=0 527.516 178.548 160.503 92.3946 367.013 128.202 115.89 123.058 110.188 238.811 231.78 66.6256 53.1283 17.3724 35.7559 12.7108 52.5915 31.3056 21.2859 144.981 134.244 34.5547 99.6896 79.1566 34.0501 17.6751 94.9754 87.5613 83.1943
internal_count=7796 3764 4032 1762 1965 2002 902 868 1609 842 1100 1038 601 412 200 212 94 750 500 250 731 696 267 429 371 169 103 779 712 679
is_linear=0
shrinkage=0.01


Tree=16
num_leaves=31
num_cat=0
split_feature=38 22 38 44 24 28 0 37 37 16 18 23 21 17 17 45 32 31 30 12 0 38 16 38 35 20 28 17 40 38
split_gain=249.711 24.4451 23.1051 15.552 15.41 15.1865 15.8536 14.4269 13.2773 10.6152 11.3539 9.21393 12.1754 10.9248 9.03341 14.0041 8.18615 8.14277 8.82786 8.49287 10.5395 9.04947 9.09418 9.31323 7.60137 13.683 7.05745 12.0143 9.26924 7.05598
threshold=0.59644050000000004 0.76592300000000002 0.33935600000000005 0.021978500000000002 0.81157950000000012 0.85977750000000008 0.062540500000000013 0.55041350000000011 0.85010550000000007 0.04939000000000001 0.20881750000000002 0.50207650000000015 0.23066400000000001 0.41523000000000004 0.29520700000000005 0.0023475000000000006 0.21943000000000004 0.22069550000000002 0.0014700000000000002 0.14329500000000003 0.18882900000000002 0.82530450000000011 0.059262500000000003 0.96790500000000013 0.63440450000000015 0.78669250000000013 0.8907130000000002 0.87867650000000019 0.81666650000000007 0.70968850000000006
decision_type=2 2 2 2 2 2 2 2 2 2 2 2 2 2 2 2 2 2 2 2 2 2 2 2 2 2 2 2 2 2
left_child=2 5 -1 -4 8 6 -2 -8 16 -9 29 12 -5 14 15 -13 17 18 19 20 -3 -22 23 -23 25 -6 27 28 -10 -11
right_child=1 4 3 11 24 -7 7 9 26 10 -12 13 -14 -15 -16 -17 -18 -19 -20 -21 21 22 -24 -25 -26 -27 -28 -29 -30 -31
leaf_value=-0.014027890656748634 -0.0054239895384835691 -0.0047168330243088337 -0.011526812868997521 0.0057414639710847192 -0.0044568044176732519 0.005811048318098793 -0.0076733766303544015 0.010012122678839584 0.0062647902009321486 0.0087758259598539352 -0.0065535630824489176 0.0067002370456543314 -0.013662484193251081 -0.0089005526281643564 0.012883731906646193 -0.011737718729390823 -0.0056468905737419185 0.0073266229227356185 -0.013765624560242572 0.010547723744926327 0.0095810175885922833 -0.0013292048921556064 -0.00473923647290186 0.016514484849759998 0.0140686173322989 0.0093299519749699047 0.011958970001457965 -0.0072473426897066342 -0.006073071870465168 -0.0044491361919376188
leaf_weight=84.790920509723946 55.497783286031336 25.706807006150484 39.595928703900427 4.2392381280660656 8.6931776404380781 37.313744571059942 12.89491583406925 19.41076051350683 135.81507649086416 15.436409567482771 13.104800889268516 10.561816321685916 13.633375022560356 10.224570889025925 7.1290233302861443 6.753318916540592 14.52072095312178 25.203040851280093 3.9444206655025473 9.2831853926181775 15.208468839526175 6.4714477043598908 16.634631074965 5.3375672027468681 21.410830117762089 41.874848488718271 16.455702267587185 7.53317742422223 6.3750865384936324 5.461721420288085
leaf_count=2067 1008 315 1215 43 46 153 189 111 622 80 165 87 326 131 40 123 136 127 54 37 96 56 151 13 44 136 48 62 59 56
internal_value=0 0.00349399 -0.0102609 -0.0067942 0.00493509 0.000229337 -0.00148055 0.00181997 0.00390232 0.00411181 0.000743588 -0.00322763 -0.00906003 -0.000220885 0.00340967 -0.000491009 0.00140171 0.00235125 0.000832906 0.00156512 0.000362862 0.0033543 2.49561e-05 0.00673598 0.00907443 0.00695986 0.00574281 0.00505961 0.00571162 0.00531949
internal_weight=0 519.588 176.928 92.1373 360.468 159.12 121.806 66.3086 288.489 53.4137 34.0029 52.5413 17.8726 34.6687 24.4442 17.3151 122.31 107.79 82.5865 78.6421 69.3589 43.6521 28.4436 11.809 71.9789 50.568 166.179 149.723 142.19 20.8981
internal_count=7796 3764 4032 1965 2002 1762 1609 601 1776 412 301 750 369 381 250 210 985 849 722 668 631 316 220 69 226 182 791 743 681 136
is_linear=0
shrinkage=0.01


Tree=17
num_leaves=31
num_cat=0
split_feature=38 22 39 44 39 28 0 32 20 20 18 41 31 37 21 21 29 22 10 24 44 14 15 14 45 41 16 18 18 10
split_gain=242.02 23.258 21.55 15.9695 15.7313 15.7094 16.63 13.7294 11.1491 9.64068 13.4103 15.2724 13.0477 10.5808 13.6858 13.7064 9.56685 9.3852 9.1502 8.76747 10.1477 9.91222 8.60771 12.6881 8.26323 9.20499 8.06714 7.2917 7.27675 8.25624
threshold=0.59644050000000004 0.79697450000000003 0.49437550000000002 0.072300000000000017 0.68389250000000013 0.85977750000000008 0.062540500000000013 0.96248300000000009 0.90601950000000009 0.76823350000000012 0.038518500000000004 0.065373000000000001 0.99767600000000012 0.93392100000000011 0.89761900000000006 0.80160550000000008 0.99964500000000012 0.98173300000000008 0.47924100000000008 0.50005400000000011 0.019284000000000006 0.43116950000000004 0.16041400000000003 0.062946500000000016 0.26057200000000008 0.35505100000000006 0.88194450000000013 0.065591500000000011 0.26794900000000005 0.31137000000000004
decision_type=2 2 2 2 2 2 2 2 2 2 2 2 2 2 2 2 2 2 2 2 2 2 2 2 2 2 2 2 2 2
left_child=2 5 -1 -4 17 6 27 9 16 10 -6 -12 -11 14 15 18 -7 -3 -13 20 21 22 23 -8 25 -5 -26 -2 -24 -30
right_child=1 4 3 24 7 8 19 -9 -10 12 11 13 -14 -15 -16 -17 -18 -19 -20 -21 -22 -23 28 -25 26 -27 -28 -29 29 -31
leaf_value=-0.013079839553391363 -0.014171626713009523 0.00099324010152746769 -0.010135785590773324 0.0065229607776495857 -0.014150151868602433 0.00095619907744149009 0.015399234881071939 0.011571220783338299 -0.0012311839257141686 0.0051296349662479611 0.013882028585209885 -0.0038262231026355525 0.013198220002707319 -0.01247009268444969 0.011773001383522972 -0.010348508342689354 0.012958464336261331 -0.013139677845616345 0.0093746273600817526 0.010626617934305667 -0.0043638277916810773 -0.0042765935772002507 0.01289043761742251 -0.0074524356347693069 -0.014038878002613775 -0.009069433523356726 0.0069222541982574106 -0.0034516847504130733 -0.0092916135642854541 0.013035866616714917
leaf_weight=104.1705364997033 7.115455719176679 20.039624055847529 39.076059981714934 16.437991044484086 4.9843356385827056 9.6137072844430822 3.416540812700986 35.815158888697624 15.078293691389261 170.67776861507446 10.476064641028641 9.4057482257485443 22.708481665700674 5.5159339364618054 11.159431377425788 10.657544938847421 21.478373125195503 6.1378835514187804 11.886552428826688 10.562937086448072 24.515653324313462 12.174402727745472 17.752292103134099 8.4123531254008395 6.7802631733939034 4.9191826581954947 2.5179163385182619 58.613706930074841 3.7151463627815238 2.9883117116987705
leaf_count=2726 127 167 999 118 46 52 15 99 70 837 40 131 75 41 36 121 57 47 64 52 254 147 81 131 102 65 22 1006 50 18
internal_value=0 0.00344483 -0.0101997 -0.00589711 0.00510716 0.000727562 -0.000849234 0.00577012 0.00582528 0.00496317 0.00160176 0.0029302 0.00607709 0.000570684 0.00223928 -0.00109065 0.00924735 -0.00232053 0.00354323 0.00211152 0.000878974 0.00353133 0.00615109 -0.000852185 -0.000494121 0.00293158 -0.00836267 -0.00461216 0.00953847 0.000661678
internal_weight=0 514.902 173.902 69.7314 319.465 195.437 149.267 293.287 46.1704 257.472 64.0856 59.1013 193.386 48.6252 43.1093 31.9498 31.0921 26.1775 21.2923 83.5376 72.9747 48.459 36.2846 11.8289 30.6554 21.3572 9.29818 65.7292 24.4558 6.70346
internal_count=7796 3764 4032 1306 1704 2060 1881 1490 179 1391 479 433 912 393 352 316 109 214 195 748 696 442 295 146 307 183 124 1133 149 68
is_linear=0
shrinkage=0.01


Tree=18
num_leaves=31
num_cat=0
split_feature=38 22 39 44 28 29 0 18 4 39 18 16 23 20 17 16 34 23 20 39 36 20 22 18 44 43 18 15 45 15
split_gain=236.352 23.0052 20.8282 15.8445 15.1108 14.42 12.8309 10.1544 12.8327 9.91725 15.338 10.7821 9.8138 9.66018 8.8913 8.85484 8.83546 8.9644 10.1554 14.3123 10.2537 9.10047 8.73796 8.65303 8.54671 8.58266 8.46061 8.20749 9.4275 7.94115
threshold=0.59644050000000004 0.76592300000000002 0.49437550000000002 0.072300000000000017 0.34820950000000006 0.94373000000000007 0.062540500000000013 0.23904750000000002 0.42137050000000004 0.97909750000000006 0.28801850000000007 0.019049500000000004 0.9418215000000002 0.89455400000000018 0.41523000000000004 0.018188000000000006 0.66835800000000012 0.95225800000000016 0.79316900000000012 0.86674700000000005 0.30481550000000007 0.84386150000000015 0.78645150000000008 0.79583350000000019 0.0057110000000000017 0.044828500000000007 0.83666650000000009 0.16041400000000003 0.052695000000000006 0.15499900000000003
decision_type=2 2 2 2 2 2 2 2 2 2 2 2 2 2 2 2 2 2 2 2 2 2 2 2 2 2 2 2 2 2
left_child=2 5 -1 -4 9 6 12 8 29 10 16 -12 -2 -7 -5 -9 17 18 19 20 -3 -20 -13 -24 -11 -26 -25 28 -23 -8
right_child=1 4 3 14 -6 13 7 15 -10 24 11 22 -14 -15 -16 -17 -18 -19 21 -21 -22 27 23 26 25 -27 -28 -29 -30 -31
leaf_value=-0.012971825586604977 -0.0063763981958592135 0.012109846107045382 -0.010127030933613775 0.0028354174879057291 0.0074251746550045876 0.010431292796894583 0.0018701300207207322 0.0061494924098784466 -0.0065117793103591295 0.011345649978555675 -0.012216842181927944 0.012610233777567545 0.0043938021858955772 -0.0017417370517307778 -0.0092139722345420949 -0.007794253597461988 0.01329541600924028 -0.010295404311966284 0.012470987739465002 0.0086331222799835589 -0.0062686721293008897 0.0052000333942074529 -0.0043633712650453802 0.015130388705262421 -0.0044160992127673816 0.0069890789336411428 -0.0016144427384948859 0.01196279597967544 -0.0087229287448241238 0.011498157862153136
leaf_weight=103.07620380935259 50.530333569739014 3.4853308089077499 38.804778553079814 22.110785426571969 137.24207662045956 20.077423699200157 15.187217022292314 6.4388755755499032 8.335235230624674 23.995437603443861 8.9796873070299608 4.7351260883733621 10.161772478371857 9.6536212973296625 8.4698946084827167 15.560326033271847 9.7994947452098113 4.6005055587738743 19.125725946389139 13.755309460684655 23.532186549156904 13.925642993301159 32.71674307435751 5.2222871631383878 9.6720632724463957 20.760430943220854 7.1470046378672123 8.4797435831278545 7.4732489623129359 19.651195220649242
leaf_count=2726 944 19 999 199 582 77 136 59 99 66 95 41 88 52 108 227 31 33 70 68 294 83 302 13 62 69 64 43 67 80
internal_value=0 0.00342074 -0.0101206 -0.00588488 0.00482719 0.000215036 -0.00126453 0.00181659 0.00463425 0.00318716 0.0019529 -0.00213043 -0.00457313 0.00647873 -0.000501888 -0.0037131 0.00425765 0.00331924 0.0040169 0.000329693 -0.00389779 0.00708474 -0.000312467 -0.00166966 0.006883 0.00336428 0.00545519 0.00363693 0.000337643 0.00730098
internal_weight=0 510.244 172.462 69.3855 354.648 155.596 125.865 65.1728 43.1736 217.406 162.978 58.8008 60.6921 29.731 30.5807 21.9992 104.177 94.3777 89.7772 40.7728 27.0175 49.0044 49.8212 45.086 54.4279 30.4325 12.3693 29.8786 21.3989 34.8384
internal_count=7796 3764 4032 1306 2002 1762 1633 601 315 1420 1223 515 1032 129 307 286 708 677 644 381 313 263 420 379 197 131 77 193 150 216
is_linear=0
shrinkage=0.01


Tree=19
num_leaves=31
num_cat=0
split_feature=38 38 39 24 37 41 45 44 28 17 2 37 10 24 43 21 38 41 14 20 20 16 43 32 15 16 15 37 20 20
split_gain=231.084 23.1456 19.8655 15.0857 12.5227 12.403 12.7244 12.1865 12.0274 11.24 10.6131 9.22632 11.4952 8.59868 8.51192 8.08766 7.80046 18.7042 7.77136 8.21624 7.72844 8.9476 7.92501 7.22618 8.46434 8.23134 7.12208 6.66221 6.63693 9.45448
threshold=0.59644050000000004 0.74798750000000014 0.58267150000000012 0.62986300000000017 0.82478900000000011 0.23557150000000002 0.49626850000000006 0.16143800000000003 0.67130550000000011 0.87867650000000019 0.11437900000000002 0.55041350000000011 0.032247000000000005 0.54425750000000017 0.12533550000000002 0.34692050000000002 0.70968850000000006 0.081912500000000013 0.21935650000000004 0.5513205000000001 0.18920250000000002 0.059262500000000003 0.0013125000000000001 0.95042250000000006 0.086458500000000008 0.13100700000000001 0.021633000000000003 0.71956550000000019 0.46402250000000006 0.8633860000000001
decision_type=2 2 2 2 2 2 2 2 2 2 2 2 2 2 2 2 2 2 2 2 2 2 2 2 2 2 2 2 2 2
left_child=2 5 -1 4 8 11 18 -4 20 13 -9 15 -13 -6 -11 -2 28 -18 -7 -20 -3 -22 -23 24 25 26 -5 -21 -14 -30
right_child=1 3 7 23 9 6 -8 10 -10 14 -12 12 16 -15 -16 -17 17 -19 19 27 21 22 -24 -25 -26 -27 -28 -29 29 -31
leaf_value=-0.012229601454546943 0.012475919159288938 0.016932734315060871 -0.008403126135914268 -0.0077068937370596002 0.0060851971522920354 -0.010114135986105801 0.007114549239402415 0.0069539793048560882 0.0090911131233046266 -0.012450587651098537 -0.010202128959791066 -0.0056307147791497024 0.013643594263618638 -0.0054388355609361842 0.0047700846609680459 -0.0095655858867038507 0.010120599816617407 -0.013987192844822961 -0.012548816576744426 0.0072955027241200024 0.0029809368826118651 -0.012258837698956485 -0.0021750854809861851 0.011667904063174462 0.00036237017367929706 0.010361039153395597 0.0073198649085709413 -0.0076444799092367623 0.0005557711370532052 0.012250977205117957
leaf_weight=121.5303548774682 2.001244105398654 2.3149777650833121 31.633749728091061 5.3049554675817472 159.24220510013402 23.822962577454746 8.4380052238702756 12.462176928296687 13.654274441301821 6.2793057179078442 5.0739023685455313 10.991252035601063 12.857387032359837 6.7491705883294335 5.2870289795100689 9.8996743401512486 6.836593031883238 6.0807567294687033 4.9390257960185435 9.2927358355373126 27.35498683527112 9.6822723774239403 39.962173890322447 33.725754408165812 19.151417324319482 40.12568593211472 7.7794331070035696 4.3972007129341355 18.090329448226843 11.186712840571998
leaf_count=3210 10 11 674 40 807 455 59 89 57 62 59 202 42 42 21 168 32 89 84 95 244 183 392 82 84 156 35 55 209 48
internal_value=0 0.00339737 -0.0100597 0.00464897 0.00339564 -0.000261349 -0.00410129 -0.00469648 0.000422297 0.00495248 0.00199002 0.00224576 0.00370626 0.00561663 -0.00457893 -0.00585911 0.00557041 -0.00122798 -0.00633061 -0.0014922 -0.00107007 -0.00161132 -0.00414174 0.00784498 0.00606322 0.00811507 0.00122739 0.00249679 0.00765462 0.00502449
internal_weight=0 505.448 170.7 376.614 270.526 128.834 50.8899 49.1698 92.9687 177.558 17.5361 77.9439 66.043 165.991 11.5663 11.9009 55.0518 12.9173 42.4519 18.629 79.3144 76.9994 49.6444 106.087 72.3615 53.2101 13.0844 13.6899 42.1344 29.277
internal_count=7796 3764 4032 2216 1819 1548 748 822 887 932 148 800 622 849 83 178 420 121 689 234 830 819 575 397 315 231 75 150 299 257
is_linear=0
shrinkage=0.01


Tree=20
num_leaves=31
num_cat=0
split_feature=38 38 39 24 44 41 45 37 17 28 24 0 38 10 37 16 45 10 14 39 28 44 38 20 45 4 0 45 39 23
split_gain=224.055 21.2723 20.0283 14.09 12.5392 11.652 12.0577 11.6397 11.5679 11.5288 9.77352 9.52135 8.53035 8.18397 9.458 8.02826 14.3486 7.59715 8.20101 7.41416 11.2613 7.36217 8.58167 8.93784 7.28003 7.25335 7.23341 7.19024 7.14327 13.9873
threshold=0.59644050000000004 0.74798750000000014 0.65815600000000007 0.62986300000000017 0.44676550000000009 0.23557150000000002 0.49626850000000006 0.82478900000000011 0.87867650000000019 0.67130550000000011 0.54425750000000017 0.065024000000000012 0.35455650000000005 0.032247000000000005 0.55041350000000011 0.074813500000000019 0.004415500000000001 0.15807150000000003 0.075033000000000002 0.78438150000000018 0.54556600000000011 0.032817000000000006 0.37794500000000003 0.32059600000000005 0.9364920000000001 0.066536500000000012 0.054259000000000009 0.0081970000000000012 0.99990650000000014 0.93652450000000009
decision_type=2 2 2 2 2 2 2 2 2 2 2 2 2 2 2 2 2 2 2 2 2 2 2 2 2 2 2 2 2 2
left_child=2 5 12 7 25 13 19 9 10 -3 -9 -10 -1 -2 -15 26 -17 18 -5 20 -7 -14 -23 -24 28 -4 27 -16 29 -19
right_child=1 3 4 17 -6 6 -8 8 11 -11 -12 -13 21 14 15 16 -18 24 -20 -21 -22 22 23 -25 -26 -27 -28 -29 -30 -31
leaf_value=-0.013754623433952656 -0.004906018661705102 -0.0010290199333126016 -0.0088914907045581394 0.0057702663750831317 0.0074902836604673756 -0.0064866826544817185 0.0069789453752246954 0.0059914697184754451 -0.01688421631228957 0.0089565959898784894 -0.0068298736480523689 0.0021313640558407012 -0.012459276660644605 -0.0056589642831324219 0.0095582177696433741 -0.013141347878143292 0.0050933371501804053 0.0041785554649131432 0.01403559626136882 -0.01232285925618027 0.0091317901190913313 0.0075485584932466314 0.0015412236731142804 -0.011524131102124698 0.012951445232248161 0.0053466470125917631 0.012492237757720393 -0.012859109688298034 0.0098088588667765292 -0.012346179592972588
leaf_weight=79.753164215711877 13.136195050086824 77.813510046340525 21.751422350294892 20.808849487453699 8.4185201618820411 22.305395048111681 8.4010905288159829 159.73113642074168 4.1990576572716218 13.579836077988146 6.175295688211917 7.061076607555151 26.524286704603583 9.1047704135999066 3.2719198726117638 5.2703142203390625 23.815287182573229 27.001261066645384 28.372801087796688 13.267748004756866 5.8212889898568383 4.4847040865570333 7.5704310778528479 16.978860502596945 9.8672597855329496 4.2823464665561906 19.120850451290607 2.5426923651248217 12.896029382944105 6.3215441927313796
leaf_count=2089 245 830 418 94 54 448 59 807 35 57 42 48 943 135 35 84 192 129 86 196 45 38 116 320 26 54 63 46 36 26
internal_value=0 0.00337086 -0.00992581 0.00456876 -0.00311878 -0.000181549 -0.00394403 0.00335328 0.00484854 0.00045471 0.00551424 -0.00495981 -0.011659 0.00227517 0.00376955 0.00535864 0.00178921 0.0076697 0.0105385 -0.00616087 -0.00325418 -0.00865072 -0.00517138 -0.00749508 0.00515404 -0.00654943 0.00952215 -0.000244735 0.00348937 0.00104371
internal_weight=0 499.885 169.764 373.828 34.4523 126.058 49.7955 268.56 177.167 91.3933 165.906 11.2601 135.311 76.262 63.1258 54.0211 29.0856 105.268 49.1817 41.3944 28.1267 55.5583 29.034 24.5493 56.0861 26.0338 24.9355 5.81461 46.2188 33.3228
internal_count=7796 3764 4032 2216 526 1548 748 1819 932 887 849 83 3506 800 555 420 276 397 180 689 493 1417 474 436 217 472 144 81 191 155
is_linear=0
shrinkage=0.01


Tree=21
num_leaves=31
num_cat=0
split_feature=38 38 39 24 44 37 10 28 17 37 21 21 15 41 37 38 0 43 23 21 24 10 14 41 0 36 0 39 16 0
split_gain=213.884 20.9244 20.5051 13.6433 11.6175 11.4991 10.3456 10.1482 9.82346 9.48503 13.1016 8.73928 10.1461 14.2943 12.6881 11.4532 8.50234 8.41444 9.2394 8.71747 7.85318 7.35701 7.6915 7.33294 7.27693 7.20352 7.11509 6.97938 9.87477 6.29777
threshold=0.59644050000000004 0.74798750000000014 0.65815600000000007 0.62986300000000017 0.44676550000000009 0.82478900000000011 0.049109500000000007 0.67130550000000011 0.87867650000000019 0.55041350000000011 0.30596900000000005 0.56587450000000017 0.20219150000000002 0.057512500000000008 0.91996750000000016 0.6057935000000001 0.065024000000000012 0.035909500000000004 0.50207650000000015 0.45953500000000008 0.54425750000000017 0.15807150000000003 0.075033000000000002 0.22255700000000003 0.031973000000000008 0.95564700000000014 0.43713400000000008 0.76181550000000009 0.24722200000000003 0.18528550000000002
decision_type=2 2 2 2 2 2 2 2 2 2 2 2 2 2 2 2 2 2 2 2 2 2 2 2 2 2 2 2 2 2
left_child=2 6 17 5 24 7 25 29 20 10 -8 -11 13 -13 15 -15 -10 -1 -19 -20 -7 22 -5 -23 -4 -2 -14 -25 -29 -3
right_child=1 3 4 21 -6 8 9 -9 16 11 -12 12 26 14 -16 -17 -18 18 19 -21 -22 23 -24 27 -26 -27 -28 28 -30 -31
leaf_value=-0.013424920849308441 -0.0073026472195074615 -0.004594574451007488 -0.0092857503525220122 0.0057594353557186805 0.0073073592651500376 0.0058145041068087258 0.018482125458534976 0.0082181349871659898 -0.016472567107656075 0.012112601971359594 -0.0092067167565371439 0.0088206566989340353 0.011538605441204351 0.0098297632424479923 0.0075368409136954929 -0.0092245229458446914 0.002075642936465782 -0.01080354260541838 0.0080391364797033661 -0.0086461568280010014 -0.0058102542012308028 0.00916281839054023 0.013783104294150375 -0.0073855771327173674 0.0029167726771067281 0.0059037642151240797 -0.0013340877708848935 -0.0026625533845863608 0.010131353461704011 0.001263838995798195
leaf_weight=85.293335383525118 26.324831319507215 29.977857378311455 19.312267246190462 20.732291461899877 8.451719254255293 159.36553282104433 1.9551692008972157 14.094362257048486 3.8067418988794071 8.9941630915272963 13.566443378105758 11.6443774998188 13.998347365297379 3.5959234405308989 7.7033611722290507 25.702440791763365 7.0449831038713455 35.468009997392073 5.8926292276009899 6.682085866574198 6.0312931686639777 24.298356629908085 28.194548863917589 6.5034767165780094 6.5427569849416605 4.8988414937630287 6.1936007924377909 11.121158888563516 13.185457475483416 47.305668670684099
leaf_count=2615 516 426 381 94 54 807 7 57 35 52 239 57 64 23 48 440 48 728 46 117 42 80 86 37 91 36 66 50 50 404
internal_value=0 0.00329906 -0.00976555 0.00448791 -0.00287073 0.00329334 -0.00024772 0.000414549 0.00478588 0.00141889 -0.00571891 0.00284234 0.00163112 -0.000842321 -0.00388324 -0.0068859 -0.004431 -0.0115396 -0.00819235 -0.000827272 0.0053906 0.0075609 0.0103831 0.00505522 -0.00619783 -0.00523063 0.00759008 0.00181577 0.00427768 -0.00100861
internal_weight=0 496.239 167.643 371.662 34.3067 267.626 124.577 91.3779 176.249 93.3538 15.5216 77.8322 68.8381 48.6461 37.0017 29.2984 10.8517 133.336 48.0427 12.5747 165.397 104.035 48.9268 55.1084 25.855 31.2237 20.1919 30.8101 24.3066 77.2835
internal_count=7796 3764 4032 2216 526 1819 1548 887 932 996 246 750 698 568 511 463 83 3506 891 163 849 397 180 217 472 552 130 137 100 830
is_linear=0
shrinkage=0.01


Tree=22
num_leaves=31
num_cat=0
split_feature=38 38 28 22 0 44 24 41 10 21 22 0 38 37 18 0 36 39 45 14 41 18 40 38 41 38 16 20 36 14
split_gain=206.135 19.6718 18.848 19.1605 14.0557 13.2806 11.5671 9.63221 9.67852 9.43202 9.8414 9.37705 12.7612 10.1068 8.28395 9.98569 8.16467 7.70937 8.20809 13.4335 9.7551 6.94003 9.63212 5.98661 5.83315 6.06597 11.5826 8.4681 5.76561 5.69317
threshold=0.59644050000000004 0.33935600000000005 0.91000250000000016 0.76829850000000011 0.061468500000000002 0.021978500000000002 0.89258850000000012 0.92759400000000014 0.66997700000000016 0.7178675000000001 0.68348400000000009 0.80551050000000013 0.94343850000000018 0.76544600000000018 0.047065500000000003 0.016996000000000001 0.46202750000000004 0.46364300000000008 0.0023475000000000006 0.50228750000000011 0.35505100000000006 0.23904750000000002 0.58571450000000003 0.74100250000000012 0.065373000000000001 0.85559950000000018 0.21103200000000003 0.80651300000000015 0.72414850000000019 0.66424800000000006
decision_type=2 2 2 2 2 2 2 2 2 2 2 2 2 2 2 2 2 2 2 2 2 2 2 2 2 2 2 2 2 2
left_child=1 -1 3 4 -2 -3 7 11 -9 21 -11 12 14 -14 -5 -16 -13 -7 20 -20 -19 22 28 -12 -4 26 27 -26 29 -6
right_child=2 5 24 6 9 17 -8 8 -10 10 23 16 13 -15 15 -17 -18 18 19 -21 -22 -23 -24 -25 25 -27 -28 -29 -30 -31
leaf_value=-0.013260762755798981 -0.0047255652272886134 -0.01087217355527677 0.012226124720107895 -0.0054422967713469292 -0.0075184427065164332 -0.010336428251415239 0.0094710071202128415 -0.01534004700121039 0.0052142522953889624 0.013425112577121111 -0.012788241670199388 0.011033550980462423 -0.0045853233053258172 0.0078042313841848792 -0.012804145242390522 0.0034119402139488907 -0.0055838207466516734 0.0093172456129652966 -0.011186221453523611 0.0043637235882229477 -0.0096754705386607846 -0.0055705100510702954 0.012137488563691195 0.0057850512018900223 0.013890147259576836 0.0091941785370885671 -0.0057409458557075247 0.0008290703633976593 0.0086760806119228536 0.0046319048532875925
leaf_weight=79.289647713070735 54.678761654999107 36.974979818565771 20.648954575881362 13.283558027818797 11.696724441833803 10.905903118429704 31.657780529931188 5.5425914637744409 3.9048562496900558 12.268454017117621 2.7746891267597666 3.5367691963911083 7.124715629965066 86.785643309354782 3.9259912800043812 115.93478703964502 18.029204122722149 11.638380996882914 13.105351661797615 9.6437418507412058 3.5229045664891592 16.373332620598376 7.7365868370980015 4.6332692774012685 9.9026246741414123 30.835675999522209 10.263321544975041 9.953323330730198 4.9909447543323031 5.753125710412859
leaf_count=2067 1033 1215 59 106 170 259 109 58 26 32 46 29 46 351 64 883 150 89 259 90 53 236 23 43 25 94 52 50 32 47
internal_value=0 -0.00967 0.00324302 0.00237071 -0.000973144 -0.00635136 0.00376613 0.0030663 -0.00684446 0.00212495 0.00792958 0.00344291 0.00404143 0.00686427 0.00205041 0.00288079 -0.00285861 -0.00292716 -0.000795688 -0.00459433 0.00490406 -0.000328598 0.0025155 -0.00117167 0.00763254 0.00607643 0.00288452 0.00734293 -0.000801727 -0.00351254
internal_weight=0 165.081 492.236 410.632 120.906 85.7913 289.726 258.068 9.44745 66.2271 19.6764 248.621 227.055 93.9104 133.144 119.861 21.566 48.8163 37.9104 22.7491 15.1613 46.5507 30.1774 7.40796 81.6039 60.9549 30.1193 19.8559 22.4408 17.4499
internal_count=7796 4032 3764 3484 1662 1965 1822 1713 84 629 121 1629 1450 397 1053 947 179 750 491 349 142 508 272 89 280 221 127 75 249 217
is_linear=0
shrinkage=0.01


Tree=23
num_leaves=31
num_cat=0
split_feature=38 39 36 34 41 11 4 18 44 45 34 41 18 18 18 38 21 30 14 44 29 43 23 21 14 15 12 41 21 4
split_gain=198.562 19.0588 18.7989 15.073 13.3083 12.6316 13.0116 11.5046 10.9257 9.61205 9.23687 11.2696 9.57104 15.1237 9.41753 9.02846 11.105 10.6243 9.67471 8.85183 8.76299 8.01238 9.0716 8.10155 7.72698 8.24207 7.22869 7.13589 9.09034 9.04837
threshold=0.59644050000000004 0.65815600000000007 0.79473000000000005 0.85676950000000007 0.92759400000000014 0.42869750000000001 0.037079000000000008 0.83666650000000009 0.44676550000000009 0.99568950000000012 0.0018005000000000002 0.48342450000000009 1.0000000180025095e-35 0.18898800000000002 0.79583350000000019 0.85559950000000018 0.85243750000000007 0.51747900000000013 0.09091550000000001 0.06160150000000001 0.6292445000000001 0.035909500000000004 0.50207650000000015 0.45953500000000008 0.98033900000000018 0.037408500000000004 0.3779820000000001 0.080123500000000014 0.83563900000000013 0.29198750000000007
decision_type=2 2 2 2 2 2 2 2 2 2 2 2 2 2 2 2 2 2 2 2 2 2 2 2 2 2 2 2 2 2
left_child=1 21 3 7 5 6 19 10 -3 27 12 -12 26 24 -15 16 17 -7 -18 -4 -21 -1 -23 -24 25 -14 -2 -8 -29 -30
right_child=2 8 4 -5 -6 15 9 -9 -10 -11 11 -13 13 14 -16 -17 18 -19 -20 20 -22 22 23 -25 -26 -27 -28 28 29 -31
leaf_value=-0.013167127895039016 -0.011021910634243849 -0.0061171533973585638 -0.0051332139900140995 0.0096704840450716444 -0.0058530241042863409 -0.0026767754836388019 0.010609221603997059 -0.011004710694352656 0.0070758865302218248 -0.0058599743992438285 -0.017083552533044104 0.0095529316828794827 -0.001278273153094089 -0.0021200508022308686 0.010789036133672755 0.010424392785100408 0.0033678534924384746 0.013610980147195591 -0.014014988150373884 -0.0042542746364475784 0.012171132306127961 -0.010619243387016057 0.0079001965240881253 -0.0083268949246312063 -0.0091627217736121296 0.0076040660729621993 0.0016115546399717226 -0.00074787700167379195 0.0075742275600621106 -0.0017303969392090726
leaf_weight=82.617743856273592 10.72089307755232 25.346366310957819 24.191876018419862 17.794182318262756 11.161286965012549 5.6419419106096056 24.449463708326221 8.9801756544038636 8.3433730527758581 7.5616066344082347 5.8679808136075717 2.1779153402894735 12.829988443525506 72.539189151488245 6.1287390459328881 63.063807018101215 9.0248802788555604 13.800871493294833 4.9623391292989245 5.7388453725725395 7.4834737125784159 34.583021603524685 5.8515587570145708 6.4881198229268193 3.5553776212036601 56.239683244377375 7.8420743662863961 24.36106444709003 70.740846527740359 12.263125818222759
leaf_count=2615 122 472 369 97 104 44 93 109 54 39 110 18 200 896 25 231 61 54 40 61 30 728 46 117 37 385 37 225 310 67
internal_value=0 -0.00955027 0.00318713 0.000876 0.00485012 0.00528726 0.00369892 3.86234e-05 -0.00284985 0.00510451 0.000596072 -0.00987342 0.001092 0.00192348 -0.00111435 0.00819732 0.00399606 0.00888458 -0.00279917 -0.00153723 0.00504206 -0.0112929 -0.00799278 -0.000631899 0.00521408 0.00595413 -0.0056848 0.0057335 0.00462318 0.00619955
internal_weight=0 163.23 489.122 204.676 284.445 273.284 176.79 186.882 33.6897 139.376 177.902 8.0459 169.856 151.293 78.6679 96.4938 33.43 19.4428 13.9872 37.4142 13.2223 129.54 46.9227 12.3397 72.625 69.0697 18.563 131.815 107.365 83.004
internal_count=7796 4032 3764 2036 1728 1624 1194 1939 526 734 1830 128 1702 1543 921 430 199 98 101 460 91 3506 891 163 622 585 159 695 602 377
is_linear=0
shrinkage=0.01


Tree=24
num_leaves=31
num_cat=0
split_feature=38 28 38 4 37 24 44 0 18 18 39 20 14 40 28 15 23 17 39 45 14 43 16 45 16 4 43 38 2 21
split_gain=194.405 20.3 19.3178 18.1568 15.5687 12.6727 12.5999 10.1133 10.3677 10.1143 10.0217 9.61514 9.99013 9.40644 12.6488 12.1627 8.4558 7.82065 7.44719 8.5444 13.0291 7.21791 7.08113 7.10023 10.4019 9.20446 9.02622 7.06817 6.83966 6.82214
threshold=0.59644050000000004 0.91000250000000016 0.33935600000000005 0.022938000000000004 0.82478900000000011 0.67530650000000014 0.021978500000000002 0.17972000000000002 0.85357150000000004 0.10263150000000001 0.58267150000000012 0.55426200000000014 0.50955700000000015 0.81666650000000007 0.60440700000000003 0.0050255000000000013 0.54617300000000013 0.88348400000000016 0.46364300000000008 0.0023475000000000006 0.50228750000000011 0.0011330000000000001 0.047873500000000006 0.017700500000000004 0.094538500000000011 0.25038350000000004 0.035081000000000008 0.9276350000000001 0.36931800000000009 0.97659000000000007
decision_type=2 2 2 2 2 2 2 2 2 2 2 2 2 2 2 2 2 2 2 2 2 2 2 2 2 2 2 2 2 2
left_child=2 3 -1 -2 5 7 -4 11 9 -9 -11 -5 16 15 -15 -6 -13 21 -8 -20 -21 -17 -23 24 -24 -25 -26 -18 -14 -19
right_child=1 -3 6 4 13 -7 18 8 -10 10 -12 12 28 14 -16 17 27 29 19 20 -22 22 23 25 26 -27 -28 -29 -30 -31
leaf_value=-0.013061873467692624 -0.0041561596656293168 0.0078187296745059164 -0.01059433191383264 -0.010735516583719646 -0.0079334536331038159 0.0075338458774324556 -0.010202218069745018 -0.0051931996884950031 -0.014410802732579815 -0.0053493932061127814 0.0059429524726710529 0.0083476066906761053 0.00047777309099787646 -0.01301427309142918 0.0097686700566004241 0.0092129531913436383 -0.0071862318951328805 -0.01136454675155925 0.0050707008305485961 -0.011258166777079857 0.0041429717649714972 -0.0034675297998280376 0.012220223360287259 0.0096551552959832903 -0.0072769574243442504 -0.00011316889426142634 0.0044572801789879695 0.0071777463153520574 0.015276124004891103 0.0056831331210158873
leaf_weight=77.760343242902309 39.586153376381844 78.995333682745695 36.470220445189625 13.509184094145892 6.5278215352445832 24.06181694380939 10.614642869681118 13.220233260653911 3.6649910081177941 9.1145731275901181 57.057864134199917 5.0041586197912684 7.950904827564953 6.4004008686169964 3.9350497499108315 60.800482580438256 30.411081622354686 4.7322270357981306 15.198184547945855 12.786619447870182 9.6299338797107321 9.2628885526210052 7.7550319647416464 49.03976574074477 12.165629190392794 12.008310712873934 14.215001568198202 3.8606652766466132 5.1438579633831978 4.6580258011817932
leaf_count=2067 681 280 1215 267 79 125 259 139 44 120 408 49 73 72 15 260 512 55 142 259 90 71 29 189 100 58 67 23 21 27
internal_value=0 0.0031824 -0.009463 0.00227604 0.0029746 0.000800196 -0.00615897 -0.000287668 0.00203309 0.00279219 0.00438755 -0.00321356 -0.00127324 0.00493893 -0.00434005 0.00546829 -0.00379514 0.00596924 -0.00280503 -0.000717588 -0.00464199 0.0064737 0.00487912 0.00569138 0.00203891 0.0077337 -0.000954053 -0.00556815 0.00629083 -0.00290806
internal_weight=0 483.081 162.46 404.086 364.5 172.999 84.6996 148.938 83.0577 79.3927 66.1724 65.8799 52.3707 191.501 10.3355 181.165 39.2759 174.637 48.2294 37.6147 22.4166 165.247 104.447 95.1837 34.1357 61.0481 26.3806 34.2717 13.0948 9.39025
internal_count=7796 3764 4032 3484 2803 1781 1965 1656 711 667 528 945 678 1022 87 935 584 856 750 491 349 774 514 443 196 247 167 535 94 82
is_linear=0
shrinkage=0.01


Tree=25
num_leaves=31
num_cat=0
split_feature=38 38 22 28 28 0 44 37 18 34 44 24 14 23 37 44 0 18 45 41 22 14 38 43 16 33 16 39 37 36
split_gain=190.226 18.6355 17.7757 11.9054 11.7363 14.0872 11.6586 10.6622 10.5402 10.2303 8.4285 8.84221 8.69642 8.27924 13.5507 10.088 10.0513 9.53188 11.2201 7.60817 10.6976 9.59635 7.52762 6.4983 8.71211 7.40884 10.9138 7.76115 8.93782 7.16883
threshold=0.59644050000000004 0.33935600000000005 0.76592300000000002 0.91000250000000016 0.85977750000000008 0.062540500000000013 0.021978500000000002 0.55041350000000011 0.86038950000000003 0.96295050000000015 0.019284000000000006 0.63468600000000008 0.43940150000000006 0.96720400000000006 0.99243500000000007 0.0011445000000000003 0.18528550000000002 0.047065500000000003 0.056915500000000008 0.14933950000000004 0.34349350000000006 0.10547200000000001 0.93118350000000005 9.7500000000000012e-05 0.027973500000000002 0.065181000000000017 0.59545450000000011 0.93785050000000003 0.82129750000000012 0.34375850000000002
decision_type=2 2 2 2 2 2 2 2 2 2 2 2 2 2 2 2 2 2 2 2 2 2 2 2 2 2 2 2 2 2
left_child=1 -1 4 8 5 -2 -3 -7 9 13 12 -12 -9 14 17 -15 22 18 -4 21 -21 -8 -17 24 -19 27 -27 28 29 -25
right_child=2 6 3 -5 -6 7 19 10 -10 -11 11 -13 -14 15 -16 16 -18 23 -20 20 -22 -23 -24 25 -26 26 -28 -29 -30 -31
leaf_value=-0.012948064568875029 -0.005181777883675286 -0.010419816786220022 0.0049169717128079759 0.0089624235687308373 0.0053586901410918146 -0.0066253039362467545 -0.0087091892827626111 0.0095365936916682725 -0.0054296380571019756 0.0098909096927562983 -0.005673160020431796 0.011771789943216227 -0.0039140589533079983 0.012454009515641611 -0.015811103155330419 0.00059282804870017703 -0.0050728749353319107 0.0023874255900236396 -0.011881242718246903 0.010805434472322855 -0.0084595826785518816 0.006464119898912859 0.01021584112537189 0.013505494607536027 -0.010452722410098633 -0.013041556322400219 0.010298717659202088 -0.0055241150895483614 0.0083335369903414346 0.0016476799541732174
leaf_weight=77.021185241639614 51.150340570835397 36.269673703471199 7.0324796140193966 49.596087511628866 34.402792698703706 11.664774292148648 5.9839390176348415 25.907678844407204 12.23026350699365 27.089179003611207 12.892815867438914 3.7507709972560397 5.9017551243305197 19.728352099657059 4.0308061204850665 13.4356542956084 9.8134372979402524 20.292258406057957 9.1493754917755705 3.2585446424782303 24.966766498051584 13.736357452347873 20.581227850168943 5.6518568396568289 7.1448101699352256 5.5083711314946395 3.1484699109569192 6.6122991833835831 59.429490581154823 52.070601561106741
leaf_count=2067 1008 1215 50 157 153 189 109 172 114 97 153 17 70 65 29 75 51 166 79 31 469 141 74 23 116 82 16 48 301 459
internal_value=0 -0.00939315 0.00316702 0.00444306 0.000254018 -0.00132429 -0.00614192 0.0019578 0.00365089 0.00406112 0.00402413 -0.0017418 0.00704103 0.0034129 0.0023177 0.00651578 0.00384294 0.00273279 -0.0045809 -0.0029058 -0.00623548 0.00185992 0.00641504 0.00347313 -0.000956241 0.00439088 -0.00455276 0.00501645 0.00561138 0.00280873
internal_weight=0 161.236 478.216 332.545 145.671 111.268 84.2153 60.1178 282.949 270.719 48.453 16.6436 31.8094 243.629 180.071 63.5587 43.8303 176.04 16.1819 47.9456 28.2253 19.7203 34.0169 159.858 27.4371 132.421 8.65684 123.764 117.152 57.7225
internal_count=7796 4032 3764 2002 1762 1609 1965 601 1845 1731 412 170 242 1634 1369 265 200 1340 129 750 500 250 149 1211 282 929 98 831 783 482
is_linear=0
shrinkage=0.01


Tree=26
num_leaves=31
num_cat=0
split_feature=38 39 22 29 0 39 11 44 22 23 43 43 18 18 20 38 4 20 36 41 38 18 36 27 41 43 21 17 15 13
split_gain=185.678 18.3126 17.6409 11.6799 12.7614 10.8361 10.7765 9.49882 9.14273 8.59001 8.36839 13.9819 8.95647 8.23755 7.97176 7.50504 7.49846 7.11263 7.07797 6.79685 7.18274 9.54801 6.59105 6.40755 9.48486 8.18437 9.01443 11.9089 6.47923 6.36321
threshold=0.59644050000000004 0.65815600000000007 0.76592300000000002 0.94373000000000007 0.062540500000000013 0.70373500000000011 0.35221550000000007 0.44676550000000009 0.91464600000000018 0.9418215000000002 1.0000000180025095e-35 0.0011330000000000001 0.29289250000000006 0.070598000000000008 0.89455400000000018 0.35455650000000005 0.066536500000000012 0.27883300000000005 0.24859100000000003 0.054381000000000006 0.91436600000000012 0.057190000000000012 0.8075230000000001 0.0033975000000000008 0.30320050000000004 0.46716100000000005 0.90005800000000014 0.74456500000000003 0.026710000000000005 0.79933550000000009
decision_type=2 2 2 2 2 2 2 2 2 2 2 2 2 2 2 2 2 2 2 2 2 2 2 2 2 2 2 2 2 2
left_child=1 15 3 4 9 8 19 16 -4 -2 -6 -12 13 -13 -5 -1 -3 18 -17 20 21 -7 29 25 -25 26 27 -21 -28 -8
right_child=2 7 5 14 10 6 22 -9 -10 -11 11 12 -14 -15 -16 17 -18 -19 -20 23 -22 -23 -24 24 -26 -27 28 -29 -30 -31
leaf_value=-0.013077698949157683 -0.0063829484925602325 -0.0083235813758545923 0.002572731714532941 0.0095383988810454744 0.0090423762473615527 -0.0057093840692234886 -0.00089108359857527342 0.0066777913090532871 -0.0080169572724863355 0.004178999572441916 -0.013196439592204226 -0.0044702897412053641 -0.0061239673601867954 0.0076776146729510475 -0.001897385194280222 -0.0072178815838667334 0.0058389928366778263 -0.010262596213625212 0.0081589215904629402 0.0025293628170840687 0.011913615882287995 0.009627273159279328 0.0093222150841221433 0.0029371534465037247 -0.012184513336830197 -0.0084277638379994645 0.0016467164143386427 -0.013485476837374706 0.0081610501362342075 0.010675880832819971
leaf_weight=74.570150892948732 46.38590556033887 20.556737203849483 28.346047043800354 19.60018532071263 13.19567233789712 7.2386788241565254 14.154509652405979 8.1468031629919988 11.444495344534515 9.2329842196777445 6.8330561835318795 7.269772136583927 9.7363955788314325 24.044749605469406 8.847163572907446 8.4086937273386848 4.5694028679281464 39.303528174525127 4.6482570685911915 56.302850387059152 18.990293875336647 9.2420594170689565 72.358132215216756 10.919047398492696 6.6889255940914145 5.4547790773212901 21.113553466275334 5.0606356710195533 55.146932128816843 7.162611372768878
leaf_count=2089 944 418 272 77 82 54 97 54 91 88 165 58 136 160 52 245 54 1123 49 487 70 37 283 87 60 54 152 54 189 15
internal_value=0 -0.00930911 0.00314121 0.000236348 -0.00116422 0.00442034 0.00509214 -0.00270557 -0.000473059 -0.00462962 0.00199135 4.82615e-05 0.00225288 0.00485744 0.00598185 -0.0110401 -0.005748 -0.00813828 -0.00174376 0.00375962 0.00772153 0.0028911 0.00788247 0.00288504 -0.00280727 0.00358557 0.00406172 0.00120862 0.00635749 0.00299545
internal_weight=0 160.204 474.769 145.146 116.699 329.624 289.833 33.2729 39.7905 55.6189 61.0796 47.884 41.0509 31.3145 28.4473 126.931 25.1261 52.3605 13.057 196.158 35.471 16.4807 93.6753 160.687 17.608 143.079 137.624 61.3635 76.2605 21.3171
internal_count=7796 4032 3764 1762 1633 2002 1639 526 363 1032 601 519 354 218 129 3506 472 1417 294 1244 161 91 395 1083 147 936 882 541 341 112
is_linear=0
shrinkage=0.01


Tree=27
num_leaves=31
num_cat=0
split_feature=38 39 28 4 37 41 44 24 0 40 28 15 18 20 14 18 2 39 23 17 38 37 10 2 16 43 23 38 39 16
split_gain=179.38 18.537 16.4027 18.2205 14.4432 12.5838 10.4336 10.054 10.8612 9.93282 11.5231 10.7419 9.36875 9.09106 10.2318 9.05229 9.00795 8.85515 8.09068 7.45499 6.32003 6.11965 6.11486 6.08248 6.00455 5.9985 7.60556 5.90521 5.89079 5.59124
threshold=0.59644050000000004 0.58267150000000012 0.91000250000000016 0.022938000000000004 0.82478900000000011 0.63759050000000006 0.16143800000000003 0.63254150000000009 0.17972000000000002 0.81666650000000007 0.56089700000000009 0.0050255000000000013 0.83666650000000009 0.55426200000000014 0.64861300000000011 0.10263150000000001 0.11437900000000002 0.58267150000000012 0.54617300000000013 0.88348400000000016 0.9276350000000001 0.98073550000000009 0.78817800000000016 0.36931800000000009 0.47871400000000003 0.10868000000000001 0.50207650000000015 0.67535800000000012 0.65815600000000007 0.80178550000000015
decision_type=2 2 2 2 2 2 2 2 2 2 2 2 2 2 2 2 2 2 2 2 2 2 2 2 2 2 2 2 2 2
left_child=1 25 3 24 7 6 -3 8 13 11 -11 -6 15 -5 18 -10 -8 22 -15 29 -20 -21 -17 -16 -2 -1 -27 -19 -9 -13
right_child=2 5 -4 4 9 -7 16 28 12 10 -12 19 -14 14 23 17 -18 27 20 21 -22 -23 -24 -25 -26 26 -28 -29 -30 -31
leaf_value=-0.012779304040465267 -0.0064508134264112784 -0.0055804639986131947 0.0073082464576414785 -0.010675620349717392 -0.0075529855467061525 -0.015961421904684331 0.0099112162559351537 -0.0016368088607493175 -0.0047388560811295159 -0.013839467685368463 0.0082585285488979004 0.0069870700671851114 -0.013496969970348466 0.0078798000090247559 0.00067424109801040438 -0.012146795236461899 -0.0077385317506273735 0.011493741740409602 -0.0069067041997746019 -0.01139802766551222 0.0068604490747007987 0.005251177208047352 0.0044874128586086821 0.016389579804980861 0.0029556755682647977 -0.010014458855396188 0.0029196185053367652 0.0040562500941861129 0.0095366540989433798 0.00044715535935132417
leaf_weight=82.719057368813083 29.460308213252574 25.483668607193977 77.35526610724628 13.148523788899181 6.1354924952611318 7.3547630384564391 10.494798428378997 6.3090153280645636 12.760572445578871 5.8327984428033215 3.9630505498498678 146.91508498415351 3.6143969586119047 5.306483717635273 5.4764201547950488 4.9883040692657215 3.9914487153291693 14.24756286293268 30.349878986366093 4.393016296438871 3.7460807561874381 4.4380049556493759 3.9677790850400925 4.4755372032523155 8.8172310004010779 23.291248227469627 5.648974623065441 42.57807476259768 18.715559532865882 14.349503695964811
leaf_count=2684 592 579 280 267 79 119 72 44 138 69 18 699 47 52 57 84 52 56 516 56 23 26 36 16 89 464 62 348 97 75
internal_value=0 -0.00918535 0.00309821 0.00227162 0.00297706 -0.00394033 -0.00172836 0.000867221 -0.000145193 0.00490155 -0.00489941 0.00544634 0.00224479 -0.00328669 -0.0013182 0.0029692 0.00504812 0.00446444 -0.00360647 0.00591523 -0.00539412 -0.00303102 -0.00477741 0.00774165 -0.00428403 -0.0114084 -0.0074898 0.00592101 0.00671968 0.00640514
internal_weight=0 158.984 471.344 393.989 355.711 47.3247 39.9699 169.684 144.66 186.027 9.79585 176.231 82.1567 62.5029 49.3544 78.5423 14.4862 65.7817 39.4024 170.096 34.096 8.83102 8.95608 9.95196 38.2775 111.659 28.9402 56.8256 25.0246 161.265
internal_count=7796 4032 3764 3484 2803 822 703 1781 1640 1022 87 935 709 931 664 662 124 524 591 856 539 82 120 73 681 3210 526 404 141 774
is_linear=0
shrinkage=0.01


Tree=28
num_leaves=31
num_cat=0
split_feature=38 39 38 44 0 28 37 40 17 21 41 37 21 16 17 45 10 15 38 18 14 21 2 0 20 36 15 37 24 37
split_gain=174.209 18.4042 15.7942 11.8908 11.8387 11.2902 9.77042 10.3502 9.8645 8.76538 8.66745 8.31286 12.6969 10.1384 9.34064 8.17893 11.4301 7.53934 7.52517 7.18072 7.72235 7.02361 6.90637 6.76742 6.16693 9.58914 8.66727 6.46606 6.74867 9.08299
threshold=0.59644050000000004 0.49437550000000002 0.74798750000000014 0.072300000000000017 0.061468500000000002 0.91000250000000016 0.82129750000000012 0.84523800000000004 0.87867650000000019 0.77472850000000004 0.61572800000000016 0.55041350000000011 0.33744000000000002 0.14400900000000003 0.42582400000000004 0.0029915000000000007 0.48436700000000005 0.011816000000000002 0.86057100000000009 0.68990400000000018 0.56235450000000009 0.9569390000000001 0.47727250000000004 0.122854 0.34511800000000009 0.51561200000000007 0.7132305000000001 0.5484150000000001 0.46991050000000006 0.64064850000000007
decision_type=2 2 2 2 2 2 2 2 2 2 2 2 2 2 2 2 2 2 2 2 2 2 2 2 2 2 2 2 2 2
left_child=1 -1 4 -3 19 6 17 8 -8 -7 15 12 -6 -13 -15 -5 -17 -4 -11 20 21 -2 -22 -10 -19 -26 27 -27 29 -29
